{"type":"LSTM","options":{"inputSize":29,"inputRange":29,"hiddenLayers":[20,20],"outputSize":29,"decayRate":0.999,"smoothEps":1e-8,"regc":0.000001,"clipval":5,"maxPredictionLength":100,"dataFormatter":{"values":["Jane saw Doug.","Doug saw Jane.","Spot saw Doug and Jane looking at each other.","It was love at first sight, and Spot had a frontrow seat. It was a very special moment for all."],"indexTable":{"J":0,"a":1,"n":2,"e":3," ":4,"s":5,"w":6,"D":7,"o":8,"u":9,"g":10,".":11,"S":12,"p":13,"t":14,"d":15,"l":16,"k":17,"i":18,"c":19,"h":20,"r":21,"I":22,"v":23,"f":24,",":25,"y":26,"m":27,"unrecognized":28},"characterTable":{"0":"J","1":"a","2":"n","3":"e","4":" ","5":"s","6":"w","7":"D","8":"o","9":"u","10":"g","11":".","12":"S","13":"p","14":"t","15":"d","16":"l","17":"k","18":"i","19":"c","20":"h","21":"r","22":"I","23":"v","24":"f","25":",","26":"y","27":"m","28":null},"characters":["J","a","n","e"," ","s","w","D","o","u","g",".","S","p","t","d","l","k","i","c","h","r","I","v","f",",","y","m","unrecognized"],"specialIndexes":[28]}},"input":{"rows":30,"columns":29,"weights":{"0":-0.7535803318023682,"1":-0.6465202569961548,"2":-0.5316963195800781,"3":0.5939328670501709,"4":0.6542337536811829,"5":0.8154272437095642,"6":-0.7290084958076477,"7":0.21296335756778717,"8":1.1581957340240479,"9":0.11178966611623764,"10":0.5656512975692749,"11":0.08371241390705109,"12":-1.0071734189987183,"13":0.7220633625984192,"14":0.6260300874710083,"15":-0.5797902941703796,"16":-0.637534499168396,"17":-0.6038254499435425,"18":0.1496436893939972,"19":0.6518461108207703,"20":-0.6229957342147827,"21":0.41668426990509033,"22":0.8525397777557373,"23":-0.4851281940937042,"24":-0.43895167112350464,"25":0.6485099792480469,"26":-0.07509150356054306,"27":0.36076319217681885,"28":-0.4416367709636688,"29":-1.0088976621627808,"30":-0.09551509469747543,"31":0.9037697911262512,"32":0.4808799922466278,"33":1.4092504978179932,"34":1.4683825969696045,"35":-0.36822542548179626,"36":1.3754199743270874,"37":1.1045870780944824,"38":-1.724859356880188,"39":-1.38603937625885,"40":1.3583022356033325,"41":-0.8171179890632629,"42":-0.3702748417854309,"43":-0.7451370358467102,"44":-0.10405196249485016,"45":-0.5658866167068481,"46":-1.2663766145706177,"47":-0.5742965340614319,"48":-1.529400110244751,"49":-0.5848829746246338,"50":2.5118865966796875,"51":1.0612711906433105,"52":-0.45432552695274353,"53":2.3751065731048584,"54":1.326837420463562,"55":1.7253402471542358,"56":-3.637570381164551,"57":0.9709304571151733,"58":1.2912288904190063,"59":1.1878019571304321,"60":0.7851030230522156,"61":0.5905951857566833,"62":0.8313174843788147,"63":0.4884892404079437,"64":1.160788655281067,"65":-2.5358715057373047,"66":0.34339573979377747,"67":0.20048141479492188,"68":-0.3880593180656433,"69":0.79762864112854,"70":-0.47578707337379456,"71":-1.2242335081100464,"72":-1.4199703931808472,"73":1.126033067703247,"74":-0.756432056427002,"75":-0.4655062258243561,"76":1.2813364267349243,"77":-0.5119345784187317,"78":-0.5170076489448547,"79":0.3060126006603241,"80":0.35493582487106323,"81":-0.6397235989570618,"82":0.23452986776828766,"83":0.3745133876800537,"84":0.6543188691139221,"85":-1.2320561408996582,"86":0.8347400426864624,"87":-0.4841858446598053,"88":-0.526593029499054,"89":0.5550568699836731,"90":2.1319663524627686,"91":2.938406467437744,"92":1.7898635864257812,"93":0.44758325815200806,"94":0.7477467060089111,"95":1.3517496585845947,"96":-1.4824135303497314,"97":-0.07879195362329483,"98":1.8402774333953857,"99":-1.1226388216018677,"100":-0.3473077714443207,"101":-0.532928466796875,"102":0.2909436523914337,"103":-1.7525930404663086,"104":-2.7378880977630615,"105":0.6470769047737122,"106":-0.1446813941001892,"107":-0.6358543634414673,"108":2.396103620529175,"109":0.5635571479797363,"110":-0.48562273383140564,"111":-0.467970073223114,"112":0.9984546303749084,"113":0.534176766872406,"114":-1.765440821647644,"115":0.44354677200317383,"116":-1.19326651096344,"117":0.05294090136885643,"118":0.9824241399765015,"119":-0.5398110747337341,"120":-0.21909849345684052,"121":-0.5541931986808777,"122":0.7007346749305725,"123":1.2640039920806885,"124":-0.527133584022522,"125":0.6423172950744629,"126":-1.3679195642471313,"127":-0.917242169380188,"128":0.5033515095710754,"129":-0.7517987489700317,"130":-1.1303865909576416,"131":0.8274095058441162,"132":0.08164245635271072,"133":0.5115019679069519,"134":-0.888150155544281,"135":-1.1320077180862427,"136":0.7372414469718933,"137":-0.14848819375038147,"138":-0.4240283668041229,"139":0.6146371364593506,"140":1.8756377696990967,"141":-0.6606819033622742,"142":1.1873722076416016,"143":-0.3277856111526489,"144":0.9815009236335754,"145":-0.8844954371452332,"146":1.3724421262741089,"147":1.1042506694793701,"148":1.2458367347717285,"149":1.546373724937439,"150":0.9289652705192566,"151":1.1479599475860596,"152":1.009769320487976,"153":1.1826788187026978,"154":-1.8304208517074585,"155":-1.2304195165634155,"156":1.1529885530471802,"157":-0.9943092465400696,"158":-0.7853332757949829,"159":-0.9893618822097778,"160":1.1604996919631958,"161":-1.3106309175491333,"162":-1.3403524160385132,"163":0.1445820927619934,"164":-1.1794451475143433,"165":-0.9603661894798279,"166":1.0551295280456543,"167":1.2785563468933105,"168":-1.0238234996795654,"169":0.7382221221923828,"170":1.0146994590759277,"171":1.0670114755630493,"172":-2.2815332412719727,"173":1.4680213928222656,"174":-1.023869276046753,"175":1.88422691822052,"176":0.3733633756637573,"177":0.7581093311309814,"178":0.702080249786377,"179":0.4879032373428345,"180":-0.7759425044059753,"181":0.6768586039543152,"182":0.7093361020088196,"183":-0.6396304368972778,"184":-1.4659509658813477,"185":0.0109137874096632,"186":-0.8242320418357849,"187":0.22219833731651306,"188":0.19159261882305145,"189":1.243512749671936,"190":-1.6719897985458374,"191":-0.4010222852230072,"192":0.2253457009792328,"193":-2.7816929817199707,"194":-0.8896518349647522,"195":0.11660898476839066,"196":1.549003005027771,"197":-1.522937297821045,"198":3.5341970920562744,"199":0.6192048192024231,"200":2.5994415283203125,"201":-2.895627737045288,"202":1.8584003448486328,"203":0.31360888481140137,"204":1.839569091796875,"205":2.3600711822509766,"206":0.22908246517181396,"207":-0.25779977440834045,"208":0.6908382177352905,"209":-0.843349277973175,"210":-1.5936967134475708,"211":1.7896649837493896,"212":0.0802723690867424,"213":-3.4665608406066895,"214":-1.1675337553024292,"215":-1.203245997428894,"216":-0.6534441709518433,"217":-1.1294430494308472,"218":-1.4093643426895142,"219":-0.6367636919021606,"220":-0.12060380727052689,"221":0.38782763481140137,"222":-2.487619161605835,"223":-0.6241407990455627,"224":-0.08261819928884506,"225":0.9017279744148254,"226":-0.47134825587272644,"227":3.7672557830810547,"228":-0.30339109897613525,"229":2.9885919094085693,"230":-1.0942002534866333,"231":2.10154128074646,"232":-0.7024741172790527,"233":0.9265023469924927,"234":2.0721323490142822,"235":-0.3477233350276947,"236":0.025625649839639664,"237":-1.3185371160507202,"238":1.655024766921997,"239":-0.07834312319755554,"240":-0.9166808128356934,"241":1.7702924013137817,"242":-1.5290077924728394,"243":-1.2505680322647095,"244":1.0315591096878052,"245":-1.8219194412231445,"246":-1.7972605228424072,"247":1.4142085313796997,"248":0.7291169762611389,"249":-0.11991004645824432,"250":-1.4051979780197144,"251":-2.1071560382843018,"252":1.4867348670959473,"253":0.36466076970100403,"254":-0.8259305357933044,"255":1.7264913320541382,"256":0.4889847934246063,"257":-1.0427063703536987,"258":0.9226313829421997,"259":-0.37159159779548645,"260":1.6374503374099731,"261":1.7735207080841064,"262":-1.1236114501953125,"263":-0.702538251876831,"264":0.11625395715236664,"265":0.22567033767700195,"266":0.6880932450294495,"267":-0.45586928725242615,"268":-2.096458673477173,"269":0.6262255311012268,"270":0.35374194383621216,"271":0.31971898674964905,"272":0.5654301643371582,"273":-0.7164791226387024,"274":0.23220692574977875,"275":0.6121650338172913,"276":-1.2083474397659302,"277":0.0676521360874176,"278":-0.7541716694831848,"279":1.2024644613265991,"280":0.8390405774116516,"281":-0.8567445278167725,"282":-0.12958259880542755,"283":1.2671312093734741,"284":-0.8518021702766418,"285":-0.7715930342674255,"286":0.9185852408409119,"287":-0.8500464558601379,"288":0.8987902402877808,"289":-0.9855839610099792,"290":0.15344835817813873,"291":0.33762916922569275,"292":0.49897414445877075,"293":-1.0237246751785278,"294":-1.9459550380706787,"295":-0.7929567098617554,"296":0.4249327778816223,"297":0.6026611328125,"298":-1.0048829317092896,"299":1.6538596153259277,"300":-0.3237099349498749,"301":-1.4980406761169434,"302":1.3509362936019897,"303":-0.17418819665908813,"304":0.10828223079442978,"305":0.8330481052398682,"306":-0.17850005626678467,"307":1.411695957183838,"308":-0.27796030044555664,"309":-0.30902132391929626,"310":1.226876974105835,"311":-4.114047527313232,"312":-0.548331081867218,"313":0.18155983090400696,"314":0.738730251789093,"315":-1.4826668500900269,"316":0.10103178024291992,"317":2.704989433288574,"318":0.6373111605644226,"319":-1.8399057388305664,"320":0.09768305718898773,"321":3.635404348373413,"322":0.4901122748851776,"323":0.22429028153419495,"324":-0.6136350631713867,"325":1.5851187705993652,"326":0.6252235174179077,"327":-0.07116154581308365,"328":0.061954647302627563,"329":-3.693805456161499,"330":-0.019767727702856064,"331":0.07604282349348068,"332":-2.427717924118042,"333":-2.174243927001953,"334":1.4282081127166748,"335":-0.18438167870044708,"336":-0.18540094792842865,"337":0.025669939815998077,"338":-3.628750801086426,"339":0.03523348644375801,"340":0.08580294996500015,"341":-0.4956315755844116,"342":0.1364726573228836,"343":1.8472682237625122,"344":-0.7640530467033386,"345":1.4255427122116089,"346":-1.9960644245147705,"347":3.3588318824768066,"348":0.9986456036567688,"349":0.5723971128463745,"350":0.47583433985710144,"351":-0.5649768114089966,"352":-0.2619999349117279,"353":0.6706063151359558,"354":0.2960943877696991,"355":-1.8626872301101685,"356":0.8857278227806091,"357":1.3635404109954834,"358":-0.4499022960662842,"359":-0.41345930099487305,"360":-0.6718979477882385,"361":-0.8811794519424438,"362":-1.4883075952529907,"363":-0.4311079680919647,"364":0.13818015158176422,"365":-0.254697322845459,"366":0.6409724354743958,"367":-1.5454553365707397,"368":-0.4565436840057373,"369":-0.6267848014831543,"370":0.7986440062522888,"371":-0.5871827602386475,"372":2.595404863357544,"373":0.3604658842086792,"374":2.3893983364105225,"375":0.4415487051010132,"376":0.8238169550895691,"377":1.978956699371338,"378":-0.07836340367794037,"379":-0.5276672840118408,"380":2.34285831451416,"381":0.434084951877594,"382":2.205995798110962,"383":-0.23089556396007538,"384":-2.694287061691284,"385":2.073791980743408,"386":0.06135273724794388,"387":0.27127107977867126,"388":1.2197688817977905,"389":-1.9737237691879272,"390":0.1757371574640274,"391":0.37032821774482727,"392":0.04363218694925308,"393":-2.3346314430236816,"394":-2.2883119583129883,"395":3.242307186126709,"396":0.5471768379211426,"397":-2.7618181705474854,"398":-0.24724389612674713,"399":2.662681818008423,"400":-3.3003854751586914,"401":-0.30178511142730713,"402":2.867633819580078,"403":-0.5391209125518799,"404":-0.08625452220439911,"405":-0.4922282099723816,"406":-2.882063150405884,"407":1.3701348304748535,"408":1.6491568088531494,"409":-1.8051940202713013,"410":-1.8843969106674194,"411":-0.7220773100852966,"412":1.4429634809494019,"413":0.8012974262237549,"414":-0.42956414818763733,"415":0.6575854420661926,"416":-0.4187229871749878,"417":-1.6175751686096191,"418":1.2202609777450562,"419":-0.2178017646074295,"420":-0.49416375160217285,"421":2.228750228881836,"422":0.9058388471603394,"423":0.888679563999176,"424":-0.39966776967048645,"425":-1.1503071784973145,"426":1.4877890348434448,"427":-1.721152663230896,"428":-0.9603498578071594,"429":1.386911153793335,"430":-0.45211055874824524,"431":-1.555707573890686,"432":-0.5749900937080383,"433":2.4258453845977783,"434":1.4940135478973389,"435":-0.6382932662963867,"436":1.5359610319137573,"437":1.878064513206482,"438":1.0842806100845337,"439":1.308187484741211,"440":1.055664300918579,"441":0.2125770002603531,"442":-0.520104706287384,"443":1.3427995443344116,"444":-1.204929232597351,"445":-3.18160343170166,"446":-0.11545926332473755,"447":-1.6195298433303833,"448":-0.8545165657997131,"449":-1.0294370651245117,"450":1.8690755367279053,"451":-1.611406922340393,"452":-1.003783941268921,"453":0.3512282967567444,"454":-2.9004361629486084,"455":-0.4847716689109802,"456":0.8625797629356384,"457":1.4173580408096313,"458":-0.6701500415802002,"459":3.7518298625946045,"460":0.15017817914485931,"461":4.210457801818848,"462":-3.5770959854125977,"463":2.8329594135284424,"464":-1.1013891696929932,"465":0.7759000062942505,"466":1.6471129655838013,"467":0.38720840215682983,"468":0.3322465419769287,"469":0.6978428959846497,"470":1.5333915948867798,"471":0.9640074372291565,"472":0.6412768959999084,"473":-0.2440759390592575,"474":-1.4958851337432861,"475":0.4717118442058563,"476":-0.577497661113739,"477":-1.7422404289245605,"478":-1.7389823198318481,"479":1.7998006343841553,"480":-0.6218597888946533,"481":-0.3334510922431946,"482":0.31157803535461426,"483":-1.5942282676696777,"484":-0.5472292304039001,"485":0.6308387517929077,"486":0.500775158405304,"487":-0.4951261579990387,"488":1.5315804481506348,"489":0.27078118920326233,"490":1.5982651710510254,"491":-0.2436675876379013,"492":1.6884385347366333,"493":-1.4867100715637207,"494":1.2001997232437134,"495":2.068040609359741,"496":-2.440826177597046,"497":0.059033289551734924,"498":-1.6218794584274292,"499":0.8910933136940002,"500":0.6980270147323608,"501":-1.4593911170959473,"502":0.46763545274734497,"503":-0.3586638569831848,"504":-0.3055949807167053,"505":2.1174097061157227,"506":-0.8462218046188354,"507":-0.5544739961624146,"508":0.8110928535461426,"509":1.5738780498504639,"510":0.9935413599014282,"511":-1.460616111755371,"512":-1.7472487688064575,"513":2.84395432472229,"514":-1.881937861442566,"515":-1.9780727624893188,"516":2.8983266353607178,"517":0.8746994137763977,"518":-2.6631219387054443,"519":1.0033482313156128,"520":0.9204878807067871,"521":1.2883867025375366,"522":0.5311026573181152,"523":0.6809468865394592,"524":0.44604262709617615,"525":-0.2264111340045929,"526":1.8847949504852295,"527":3.2607669830322266,"528":-0.15768687427043915,"529":-4.725449085235596,"530":1.4425379037857056,"531":-1.282995343208313,"532":-0.5339273810386658,"533":2.525909423828125,"534":-0.7309812307357788,"535":-0.36042025685310364,"536":-0.5771278738975525,"537":-0.03427506983280182,"538":-3.4310572147369385,"539":-2.597203493118286,"540":4.294249057769775,"541":-0.2712259888648987,"542":-1.2651968002319336,"543":2.8836052417755127,"544":0.7113112211227417,"545":-0.8042138814926147,"546":1.4127994775772095,"547":0.19591271877288818,"548":0.6102606058120728,"549":-0.4891067445278168,"550":-0.0015790897887200117,"551":-2.07788348197937,"552":0.6779235005378723,"553":1.0944570302963257,"554":-2.5961825847625732,"555":-0.05022444948554039,"556":-1.7997844219207764,"557":0.8417413234710693,"558":1.5946235656738281,"559":-1.4804778099060059,"560":0.6316804885864258,"561":-0.6334219574928284,"562":-0.39416468143463135,"563":2.4411604404449463,"564":-0.8477840423583984,"565":-0.6932581663131714,"566":0.9403092265129089,"567":1.5389307737350464,"568":1.4613771438598633,"569":-1.0687295198440552,"570":-0.954346776008606,"571":2.321988105773926,"572":-1.7318204641342163,"573":-1.9751040935516357,"574":1.6810696125030518,"575":0.7894529700279236,"576":-2.6399903297424316,"577":0.6297845840454102,"578":0.42988234758377075,"579":1.1345794200897217,"580":0.10027974098920822,"581":1.5193846225738525,"582":-0.26211240887641907,"583":3.916588068008423,"584":3.7480461597442627,"585":4.68733024597168,"586":0.32922717928886414,"587":-1.322652816772461,"588":3.375337839126587,"589":-1.4529460668563843,"590":1.391505479812622,"591":3.424988269805908,"592":-2.898745536804199,"593":-0.4844990372657776,"594":-1.0460941791534424,"595":-0.39104560017585754,"596":-4.911999225616455,"597":-3.0391323566436768,"598":3.1476097106933594,"599":1.0011136531829834,"600":-1.8719505071640015,"601":1.915293574333191,"602":2.6042087078094482,"603":-2.8821985721588135,"604":1.5383555889129639,"605":1.3404375314712524,"606":0.46062028408050537,"607":-2.0577304363250732,"608":-0.5231496095657349,"609":-1.80054771900177,"610":-1.1252233982086182,"611":-0.044358041137456894,"612":-0.8526490330696106,"613":-0.48172926902770996,"614":-1.7818244695663452,"615":-0.09455183893442154,"616":1.7644994258880615,"617":-1.3727242946624756,"618":0.960631787776947,"619":-0.04807109013199806,"620":-0.3508267402648926,"621":1.1544679403305054,"622":0.22260946035385132,"623":0.2580758035182953,"624":-0.3452026844024658,"625":2.350701093673706,"626":1.462766408920288,"627":-3.075997829437256,"628":0.2023482769727707,"629":1.3945481777191162,"630":1.4762135744094849,"631":-1.8062255382537842,"632":1.6667265892028809,"633":-1.338088035583496,"634":-1.0551742315292358,"635":-0.39098840951919556,"636":-1.5428208112716675,"637":-0.06674440950155258,"638":-0.08663920313119888,"639":1.3349615335464478,"640":1.6431959867477417,"641":-0.9780974388122559,"642":-0.8458239436149597,"643":-0.7014413475990295,"644":1.4968403577804565,"645":0.1926915943622589,"646":-0.4822956621646881,"647":0.006967650260776281,"648":-1.1597620248794556,"649":-0.25221723318099976,"650":0.6148064732551575,"651":-1.8230234384536743,"652":-1.4047050476074219,"653":1.36314058303833,"654":1.2379381656646729,"655":0.5667921304702759,"656":-0.2866891026496887,"657":-1.1097453832626343,"658":0.15765465795993805,"659":-0.3401325047016144,"660":-1.0433926582336426,"661":0.9614683389663696,"662":0.23339153826236725,"663":-0.30975568294525146,"664":0.3102127015590668,"665":0.7235525846481323,"666":1.2376633882522583,"667":0.004153568763285875,"668":-2.2445027828216553,"669":-2.268369197845459,"670":-0.5279837250709534,"671":-0.3310162425041199,"672":-0.920935869216919,"673":-2.789090394973755,"674":0.49731650948524475,"675":-0.3072642683982849,"676":-0.9084446430206299,"677":2.300734281539917,"678":-0.20738902688026428,"679":0.2124338299036026,"680":2.0438406467437744,"681":2.1361241340637207,"682":-2.35101580619812,"683":1.3175599575042725,"684":-0.0958336815237999,"685":-0.4596247375011444,"686":2.0016872882843018,"687":0.41944923996925354,"688":-0.22214487195014954,"689":-0.6802168488502502,"690":0.687393844127655,"691":-2.460843086242676,"692":-0.704073429107666,"693":-1.1146738529205322,"694":1.915614128112793,"695":-2.3810548782348633,"696":-0.003621291136369109,"697":1.0990049839019775,"698":1.261399269104004,"699":2.7595739364624023,"700":2.238126277923584,"701":2.2801125049591064,"702":1.1619786024093628,"703":-1.3403488397598267,"704":2.383357286453247,"705":-2.2003180980682373,"706":-0.6452861428260803,"707":1.2789862155914307,"708":-2.393920660018921,"709":-0.9445014595985413,"710":-1.1451200246810913,"711":0.9448975324630737,"712":-2.3240866661071777,"713":-3.5792081356048584,"714":1.540579915046692,"715":-0.7913221716880798,"716":-2.5266990661621094,"717":1.3179103136062622,"718":2.809453010559082,"719":-2.402822971343994,"720":0.1522098332643509,"721":2.3812897205352783,"722":0.1809932142496109,"723":-0.17193874716758728,"724":0.849856436252594,"725":-1.1961205005645752,"726":1.5498090982437134,"727":-0.14515484869480133,"728":-3.0600783824920654,"729":-2.1934993267059326,"730":-1.3956639766693115,"731":-0.38532814383506775,"732":0.19126781821250916,"733":-2.03507399559021,"734":1.5397998094558716,"735":0.31581687927246094,"736":-2.586660146713257,"737":3.288846254348755,"738":0.23707972466945648,"739":0.19495312869548798,"740":0.4016372263431549,"741":0.716779887676239,"742":2.0409719944000244,"743":0.6191917657852173,"744":0.06303256005048752,"745":1.6260902881622314,"746":-2.2747814655303955,"747":-1.8741854429244995,"748":1.6524403095245361,"749":2.7810864448547363,"750":-3.136686325073242,"751":0.8305908441543579,"752":3.942244052886963,"753":0.06087787076830864,"754":-3.0304501056671143,"755":1.5744128227233887,"756":2.5645785331726074,"757":-0.07132583111524582,"758":0.18054603040218353,"759":0.30875834822654724,"760":0.14174945652484894,"761":1.823331356048584,"762":0.9722856879234314,"763":-0.03130236268043518,"764":-2.5066022872924805,"765":-1.2313756942749023,"766":-0.6412491798400879,"767":-1.7951682806015015,"768":-1.447593092918396,"769":2.4163296222686768,"770":-1.1562038660049438,"771":0.2177564650774002,"772":-0.6304671168327332,"773":-3.2494564056396484,"774":0.31925222277641296,"775":-0.5004314184188843,"776":0.6137123703956604,"777":0.3114505708217621,"778":3.7673256397247314,"779":-0.6937100887298584,"780":4.038910388946533,"781":-4.097984790802002,"782":3.1695594787597656,"783":-2.0872702598571777,"784":-1.876166582107544,"785":0.5397781133651733,"786":2.9887993335723877,"787":1.067124843597412,"788":1.574496865272522,"789":1.3518998622894287,"790":2.0420241355895996,"791":2.7144246101379395,"792":0.7081108093261719,"793":-1.661616563796997,"794":1.3320614099502563,"795":-3.13602352142334,"796":-1.1673986911773682,"797":-0.6711601614952087,"798":-0.4684034287929535,"799":-2.746631145477295,"800":-0.8463863730430603,"801":-0.7679659724235535,"802":-0.7679929733276367,"803":-3.1885998249053955,"804":-3.2470829486846924,"805":3.5993058681488037,"806":-3.4731414318084717,"807":0.27918174862861633,"808":4.334456443786621,"809":0.8772282600402832,"810":-1.1456222534179688,"811":0.828279972076416,"812":-3.244870185852051,"813":1.3623460531234741,"814":3.6745052337646484,"815":-1.3488742113113403,"816":-2.019158124923706,"817":-1.6973012685775757,"818":2.28798770904541,"819":0.9566779732704163,"820":-1.2712037563323975,"821":-0.13905411958694458,"822":-1.8573870658874512,"823":-1.768085241317749,"824":1.5334138870239258,"825":-2.2829203605651855,"826":-2.1480860710144043,"827":2.454735279083252,"828":1.7439918518066406,"829":0.8192064762115479,"830":-1.1340044736862183,"831":-2.1676831245422363,"832":1.8235312700271606,"833":-1.3989849090576172,"834":-1.600057601928711,"835":2.1553125381469727,"836":-0.06195418909192085,"837":-1.5310238599777222,"838":0.5911611914634705,"839":1.9934581518173218,"840":2.5459649562835693,"841":-0.046039994806051254,"842":0.041143517941236496,"843":-0.04345544055104256,"844":0.038198187947273254,"845":0.06262418627738953,"846":-0.0032573433127254248,"847":-0.048583317548036575,"848":0.014380873180925846,"849":-0.06859995424747467,"850":-0.0007149757002480328,"851":0.013272455893456936,"852":-0.07161370664834976,"853":-0.07629986107349396,"854":0.062057774513959885,"855":0.07412169873714447,"856":-0.06527440994977951,"857":-0.06460891664028168,"858":0.01563476026058197,"859":0.06731156259775162,"860":-0.003011111170053482,"861":0.062189795076847076,"862":0.0771370530128479,"863":-0.012620516121387482,"864":-0.01281131710857153,"865":-0.0016880093608051538,"866":-0.008234009146690369,"867":0.050349459052085876,"868":0.001971478806808591,"869":0.007327526342123747}},"hiddenLayers":[{"inputMatrix":{"rows":20,"columns":29,"weights":{"0":-0.9930549263954163,"1":0.4763071835041046,"2":0.1344214677810669,"3":-2.1045830249786377,"4":-1.6989428997039795,"5":-1.8790532350540161,"6":-0.21194005012512207,"7":1.5715384483337402,"8":-1.1007415056228638,"9":-0.17783117294311523,"10":-0.26785802841186523,"11":-1.574702501296997,"12":1.1011831760406494,"13":0.009358990006148815,"14":0.012950031086802483,"15":0.04640674591064453,"16":1.5108777284622192,"17":1.6139925718307495,"18":-2.133049964904785,"19":-0.0862790197134018,"20":1.9041643142700195,"21":-0.729592502117157,"22":-1.658462405204773,"23":2.2926230430603027,"24":0.30814459919929504,"25":-2.2201175689697266,"26":0.08473022282123566,"27":0.5989478230476379,"28":0.18641674518585205,"29":-0.6362177729606628,"30":0.4432086646556854,"31":0.2001565396785736,"32":-0.7678504586219788,"33":-0.4235793948173523,"34":-0.6275514960289001,"35":-0.05163992568850517,"36":0.4842718541622162,"37":-0.8502321839332581,"38":-0.22252193093299866,"39":-0.18140685558319092,"40":-0.03961174190044403,"41":0.8538543581962585,"42":-0.2530403137207031,"43":-0.40487074851989746,"44":0.6720626354217529,"45":0.4830529987812042,"46":0.47719767689704895,"47":0.23970022797584534,"48":-0.35465207695961,"49":0.8014727234840393,"50":-0.26221397519111633,"51":-0.9203161597251892,"52":0.7711153626441956,"53":0.8276475071907043,"54":-0.7120872139930725,"55":0.5617055296897888,"56":-1.109700083732605,"57":0.35457512736320496,"58":0.9957671165466309,"59":0.4373888075351715,"60":0.5913651585578918,"61":0.9148007035255432,"62":0.5363521575927734,"63":0.25630462169647217,"64":0.24459609389305115,"65":-1.0482879877090454,"66":0.38379645347595215,"67":-1.385136604309082,"68":-0.7204886674880981,"69":0.9442247152328491,"70":-0.41468551754951477,"71":-0.3854474425315857,"72":-0.23548930883407593,"73":0.3252468705177307,"74":-0.0970228761434555,"75":-0.4610244035720825,"76":1.087502121925354,"77":-0.38907545804977417,"78":-1.1202913522720337,"79":0.5506983995437622,"80":0.2807885408401489,"81":-0.7008671760559082,"82":-0.0524393729865551,"83":0.5767747759819031,"84":0.11675026267766953,"85":-0.8752331733703613,"86":0.5045393109321594,"87":0.19304317235946655,"88":0.14593255519866943,"89":-0.2921285331249237,"90":0.3309650719165802,"91":0.3221723735332489,"92":0.2578388452529907,"93":-0.41128307580947876,"94":-0.042430561035871506,"95":0.2963668704032898,"96":-0.7762781977653503,"97":-0.030721738934516907,"98":-0.414535254240036,"99":-0.4321995973587036,"100":0.6078563928604126,"101":0.5975626111030579,"102":0.019008301198482513,"103":-0.38123026490211487,"104":-0.11631814390420914,"105":-0.16885393857955933,"106":-0.010344092734158039,"107":-0.27834925055503845,"108":0.5998429656028748,"109":0.4092916250228882,"110":-0.19885532557964325,"111":-0.100655697286129,"112":0.07776705920696259,"113":-0.18654665350914001,"114":-1.5848382711410522,"115":-0.09417044371366501,"116":0.23190194368362427,"117":0.4113253951072693,"118":0.9487506151199341,"119":0.4641277492046356,"120":0.3865166902542114,"121":0.4606456160545349,"122":0.767570436000824,"123":-0.4084008038043976,"124":0.4386625587940216,"125":-0.069289930164814,"126":-0.9390563368797302,"127":0.03899220749735832,"128":-0.4671115279197693,"129":-0.8048171997070312,"130":-0.9674667716026306,"131":0.5991227626800537,"132":-0.34012794494628906,"133":-0.6882942318916321,"134":0.1670183688402176,"135":-0.9529571533203125,"136":-0.43649357557296753,"137":1.1641920804977417,"138":0.4133225977420807,"139":-0.052306804805994034,"140":0.4436752200126648,"141":0.7249957919120789,"142":0.6810110807418823,"143":-0.5137807130813599,"144":0.6530286073684692,"145":1.6143944263458252,"146":-0.4099491238594055,"147":-0.8075509071350098,"148":0.3206787109375,"149":-0.6119709014892578,"150":-0.0427861288189888,"151":-0.26595866680145264,"152":-2.3165013790130615,"153":0.7524102926254272,"154":0.42014387249946594,"155":0.45826563239097595,"156":0.1455896496772766,"157":-0.6332767605781555,"158":0.7158518433570862,"159":0.7287325263023376,"160":-0.668990969657898,"161":-0.6106245517730713,"162":0.174704447388649,"163":0.971802294254303,"164":0.6748430132865906,"165":-1.061020016670227,"166":-1.4396617412567139,"167":1.0798099040985107,"168":-1.2770977020263672,"169":-0.4487934708595276,"170":0.8041128516197205,"171":-0.5488793253898621,"172":-0.37758389115333557,"173":-0.6578697562217712,"174":-0.5662787556648254,"175":0.0350111722946167,"176":-0.48578983545303345,"177":-1.4603911638259888,"178":-1.130964994430542,"179":-1.3608086109161377,"180":0.07270555198192596,"181":1.2989704608917236,"182":-1.5282224416732788,"183":0.3638190031051636,"184":0.2878987789154053,"185":-1.8131709098815918,"186":1.385014533996582,"187":0.21952873468399048,"188":0.30680224299430847,"189":0.38273000717163086,"190":0.8651164174079895,"191":1.9644780158996582,"192":-1.828961968421936,"193":0.1964104026556015,"194":2.064002513885498,"195":-0.8642892837524414,"196":-0.7665043473243713,"197":1.7525819540023804,"198":-0.05883996561169624,"199":-0.9810816645622253,"200":-0.1524103283882141,"201":0.9886836409568787,"202":-0.3774687647819519,"203":-0.059125423431396484,"204":-0.5049332976341248,"205":0.33614790439605713,"206":0.07714735716581345,"207":0.31099122762680054,"208":0.07276315242052078,"209":0.18412335216999054,"210":-0.2656826674938202,"211":-0.4781002700328827,"212":1.3468077182769775,"213":0.18794965744018555,"214":1.0665826797485352,"215":0.4552863538265228,"216":-0.6823714375495911,"217":-0.7550302743911743,"218":0.2722323536872864,"219":-0.47777602076530457,"220":-0.13346168398857117,"221":0.3465302586555481,"222":0.24609103798866272,"223":0.43699049949645996,"224":-0.7671586275100708,"225":-0.6028805375099182,"226":0.30121657252311707,"227":0.6132189631462097,"228":-0.4981125295162201,"229":0.9353289008140564,"230":-0.5024902820587158,"231":0.2730376422405243,"232":0.31572920083999634,"233":0.7169930338859558,"234":0.7660862803459167,"235":-0.5408878326416016,"236":0.2343662828207016,"237":0.12707841396331787,"238":0.6013035774230957,"239":-0.7373212575912476,"240":0.28468528389930725,"241":-1.3168480396270752,"242":-0.8239961266517639,"243":1.5805184841156006,"244":-0.2724069654941559,"245":-1.1826425790786743,"246":-1.1291894912719727,"247":0.023213179782032967,"248":0.5915173888206482,"249":-0.6257253885269165,"250":0.9888889789581299,"251":-0.5948731899261475,"252":-0.752352774143219,"253":1.06191885471344,"254":0.052220169454813004,"255":-0.24828867614269257,"256":0.058089736849069595,"257":0.2553207576274872,"258":-0.03169631585478783,"259":-1.2973264455795288,"260":0.5666811466217041,"261":0.5201927423477173,"262":0.04021364450454712,"263":-0.16053816676139832,"264":-0.5434046387672424,"265":-0.3712817132472992,"266":-0.9316955208778381,"267":-0.3327738046646118,"268":-0.6086387634277344,"269":-0.7924291491508484,"270":0.43753543496131897,"271":0.4408699572086334,"272":0.45654886960983276,"273":0.7927562594413757,"274":0.3469926416873932,"275":0.20557251572608948,"276":0.43173766136169434,"277":0.541786253452301,"278":0.19297188520431519,"279":0.8161951303482056,"280":0.05888921767473221,"281":0.3451770842075348,"282":-0.9418434500694275,"283":-0.6368467211723328,"284":0.16711685061454773,"285":-0.248488187789917,"286":-0.272922545671463,"287":-0.28193336725234985,"288":0.573442280292511,"289":0.04692913591861725,"290":-0.04425014182925224,"291":-0.11877560615539551,"292":0.15459966659545898,"293":-0.50238037109375,"294":-0.36888548731803894,"295":-0.5813179612159729,"296":0.30416062474250793,"297":0.18005475401878357,"298":-0.7640252113342285,"299":0.4897335171699524,"300":-0.2223239541053772,"301":-0.2655445635318756,"302":0.6452977657318115,"303":-0.25038933753967285,"304":-0.09874852746725082,"305":0.09765637665987015,"306":0.5583410859107971,"307":0.4238370954990387,"308":-0.32413095235824585,"309":0.052287451922893524,"310":0.5584757328033447,"311":-0.6017850637435913,"312":-0.5757171511650085,"313":0.5394089221954346,"314":-0.3366895318031311,"315":-0.41549238562583923,"316":-0.16654793918132782,"317":0.765027642250061,"318":0.048508334904909134,"319":0.0931779220700264,"320":1.3948643207550049,"321":0.4349459111690521,"322":0.9877835512161255,"323":-0.8022932410240173,"324":0.6866493225097656,"325":0.8974573016166687,"326":-0.4498130977153778,"327":0.16063489019870758,"328":-1.4265995025634766,"329":-0.602045476436615,"330":-0.02098718285560608,"331":-0.24573518335819244,"332":-0.1473073810338974,"333":-0.3439734876155853,"334":1.3643624782562256,"335":-0.8193268775939941,"336":-0.19121846556663513,"337":1.0558854341506958,"338":-0.5058346390724182,"339":-1.0126935243606567,"340":0.586541473865509,"341":0.4582754969596863,"342":-0.6767759919166565,"343":-0.039461877197027206,"344":0.7256195545196533,"345":0.12027594447135925,"346":0.4716508686542511,"347":0.6705796718597412,"348":-0.42133772373199463,"349":0.6919479966163635,"350":0.7898901104927063,"351":-0.4733240008354187,"352":-0.3679819405078888,"353":-0.6795639991760254,"354":0.7652508020401001,"355":0.4476282596588135,"356":-0.7630426287651062,"357":0.289669394493103,"358":-0.793084979057312,"359":-0.2988896071910858,"360":0.8973723649978638,"361":-0.6932191848754883,"362":-0.5420131087303162,"363":0.8488712310791016,"364":0.2730509638786316,"365":0.645088791847229,"366":-0.35214903950691223,"367":-0.7802115678787231,"368":0.7102938890457153,"369":0.3395639955997467,"370":-0.5915590524673462,"371":0.5208998918533325,"372":0.6916980147361755,"373":-0.752081036567688,"374":0.39535433053970337,"375":-0.5281990766525269,"376":0.8239204287528992,"377":-1.0678590536117554,"378":-0.3146236538887024,"379":0.3124573826789856,"380":-1.222163200378418,"381":-0.5191779136657715,"382":-2.167973756790161,"383":0.14052478969097137,"384":0.7996968626976013,"385":-1.6629191637039185,"386":1.0858794450759888,"387":-0.22399748861789703,"388":-1.3091671466827393,"389":1.9464366436004639,"390":-0.23414787650108337,"391":-0.20620682835578918,"392":0.16605772078037262,"393":1.57487154006958,"394":0.9070180654525757,"395":-1.2964121103286743,"396":-0.2052110731601715,"397":2.0487608909606934,"398":-0.8335438966751099,"399":-2.1293365955352783,"400":1.9432424306869507,"401":-0.11608048528432846,"402":-2.039565324783325,"403":-0.1147715225815773,"404":0.13873863220214844,"405":0.14208394289016724,"406":-0.819766640663147,"407":-0.44717520475387573,"408":-0.2541399598121643,"409":0.4145459532737732,"410":0.27333131432533264,"411":0.30360254645347595,"412":-0.11448628455400467,"413":1.0125932693481445,"414":0.5238876342773438,"415":0.17087368667125702,"416":0.065945103764534,"417":0.3723337650299072,"418":-0.523612916469574,"419":0.22299812734127045,"420":0.18638215959072113,"421":-0.08040779829025269,"422":-0.6194518208503723,"423":-0.19029709696769714,"424":-0.38900473713874817,"425":0.00025810080114752054,"426":-0.8616143465042114,"427":-0.6561897993087769,"428":0.992302417755127,"429":-1.0843405723571777,"430":-0.08264973759651184,"431":0.8784283399581909,"432":-0.24409952759742737,"433":-0.5157460570335388,"434":-0.10785360634326935,"435":0.41104021668434143,"436":-0.6226447224617004,"437":-0.14124839007854462,"438":-0.3613815903663635,"439":-0.2203420251607895,"440":0.2893693745136261,"441":-0.18773695826530457,"442":-0.3221600353717804,"443":0.4006110727787018,"444":0.2845211327075958,"445":-0.2992633581161499,"446":0.09771782159805298,"447":-0.4562947154045105,"448":0.024020003154873848,"449":0.3316361904144287,"450":-0.7557178139686584,"451":0.21911416947841644,"452":-0.01516610849648714,"453":-0.17197929322719574,"454":0.060825690627098083,"455":-0.5766748785972595,"456":-0.06434298306703568,"457":0.5341865420341492,"458":-0.46200695633888245,"459":0.013743513263761997,"460":0.6046237349510193,"461":-0.09000106900930405,"462":0.9383239150047302,"463":-0.23297935724258423,"464":0.016279323026537895,"465":-0.9215314388275146,"466":1.0189642906188965,"467":-0.15094994008541107,"468":0.26510822772979736,"469":-0.7212520837783813,"470":0.6772038340568542,"471":0.9016774892807007,"472":-0.4668334126472473,"473":-0.02428937703371048,"474":-1.4889670610427856,"475":0.3700157105922699,"476":0.346981406211853,"477":-0.5114920139312744,"478":-0.42167940735816956,"479":0.863911509513855,"480":0.44108352065086365,"481":0.01814802549779415,"482":-0.5478354096412659,"483":-1.1582283973693848,"484":0.1306941956281662,"485":0.16472065448760986,"486":-0.4489290714263916,"487":0.27324748039245605,"488":-0.3746027648448944,"489":0.0647786483168602,"490":1.0758179426193237,"491":-1.0282094478607178,"492":1.3453747034072876,"493":-0.3420897126197815,"494":0.8019654750823975,"495":1.067777395248413,"496":-0.5631110668182373,"497":-0.4192211627960205,"498":-0.5545050501823425,"499":0.9863804578781128,"500":0.29659608006477356,"501":-0.6100149750709534,"502":-0.11272825300693512,"503":-0.8085618615150452,"504":-0.25850000977516174,"505":0.5939716696739197,"506":-0.7436401844024658,"507":-0.6439865231513977,"508":1.0889972448349,"509":0.32778891921043396,"510":0.5463029742240906,"511":-0.5046560168266296,"512":-0.7657725811004639,"513":0.6209234595298767,"514":-0.36004501581192017,"515":-0.6165065169334412,"516":0.5566409826278687,"517":0.512954831123352,"518":-0.7041982412338257,"519":0.22296136617660522,"520":0.14077256619930267,"521":1.1265910863876343,"522":-1.0603580474853516,"523":-0.5284017324447632,"524":-0.43826377391815186,"525":-1.1878948211669922,"526":-0.5754777193069458,"527":-0.5266454219818115,"528":-0.26921504735946655,"529":-0.0799250677227974,"530":-0.3507169783115387,"531":-0.13058088719844818,"532":1.0009716749191284,"533":-0.28085967898368835,"534":0.49287375807762146,"535":0.5749604105949402,"536":0.4984065294265747,"537":-0.19394180178642273,"538":1.2433279752731323,"539":0.18717128038406372,"540":-0.5325697660446167,"541":0.7557238340377808,"542":1.2875497341156006,"543":-0.050127919763326645,"544":-0.8573085069656372,"545":1.3048477172851562,"546":-1.3394290208816528,"547":-0.6591971516609192,"548":-1.0089889764785767,"549":0.8307958245277405,"550":-0.600243091583252,"551":-0.6661707758903503,"552":0.7465695738792419,"553":0.905868411064148,"554":0.41026806831359863,"555":0.6460410952568054,"556":0.6365461349487305,"557":0.27006739377975464,"558":0.04891837015748024,"559":1.0189305543899536,"560":-0.8864182233810425,"561":-0.7975062727928162,"562":0.22806765139102936,"563":-0.833394467830658,"564":-0.46268025040626526,"565":-0.8097516894340515,"566":0.4406959116458893,"567":-0.5694072246551514,"568":-0.6472622752189636,"569":0.1888786256313324,"570":-0.7937482595443726,"571":-0.6858330965042114,"572":0.8986558318138123,"573":0.5491002202033997,"574":-0.3773927688598633,"575":0.34281060099601746,"576":0.39517325162887573,"577":0.7433617115020752,"578":-1.6618160009384155,"579":1.0805069208145142}},"inputHidden":{"rows":20,"columns":20,"weights":{"0":-0.46079742908477783,"1":0.1943112164735794,"2":-0.08530782163143158,"3":-0.11486071348190308,"4":-0.14410808682441711,"5":-0.46367213129997253,"6":0.5092399716377258,"7":-0.4624585211277008,"8":0.3007553815841675,"9":0.128609299659729,"10":0.4703827202320099,"11":-0.01605338416993618,"12":0.8223055601119995,"13":-0.24114160239696503,"14":1.281071424484253,"15":0.42147737741470337,"16":0.014020578004419804,"17":0.19962811470031738,"18":-0.40644949674606323,"19":0.18655119836330414,"20":0.9410520195960999,"21":-0.3772965967655182,"22":-0.9949477314949036,"23":-0.8803560137748718,"24":0.3908786475658417,"25":-0.21306324005126953,"26":0.07715757936239243,"27":0.6461057662963867,"28":-0.24879291653633118,"29":0.933262288570404,"30":0.21348035335540771,"31":-2.685250759124756,"32":0.7345607876777649,"33":0.046083252876996994,"34":-0.9814493060112,"35":0.1756596714258194,"36":-0.44810909032821655,"37":0.0029649019706994295,"38":0.6262495517730713,"39":2.22621488571167,"40":-0.44228237867355347,"41":2.074942111968994,"42":1.8489251136779785,"43":0.47433632612228394,"44":1.8825129270553589,"45":-0.970461905002594,"46":0.43223732709884644,"47":-2.9493796825408936,"48":-0.47137215733528137,"49":-1.4753236770629883,"50":1.3626161813735962,"51":1.2320125102996826,"52":2.7828500270843506,"53":-0.6970911622047424,"54":1.433189034461975,"55":1.5266201496124268,"56":0.9524843692779541,"57":0.847023069858551,"58":-0.5456746220588684,"59":-0.7350558042526245,"60":-1.5782700777053833,"61":-1.0861111879348755,"62":0.11629537492990494,"63":0.9500884413719177,"64":1.8317924737930298,"65":1.613415241241455,"66":2.155097007751465,"67":0.8862214684486389,"68":-0.8472879528999329,"69":0.9249301552772522,"70":0.7077814340591431,"71":1.048100233078003,"72":1.403069019317627,"73":-1.7110270261764526,"74":2.497894287109375,"75":-3.8040835857391357,"76":-0.983051061630249,"77":1.403059482574463,"78":-4.210536003112793,"79":-2.622051477432251,"80":1.2517032623291016,"81":0.11077301949262619,"82":0.06787202507257462,"83":0.23828499019145966,"84":0.9377078413963318,"85":0.850125789642334,"86":-1.189195990562439,"87":-0.2666546404361725,"88":-0.7691158652305603,"89":-0.3323415517807007,"90":-0.9381265044212341,"91":1.3648163080215454,"92":-1.6265851259231567,"93":1.2645518779754639,"94":0.22616419196128845,"95":-0.787956714630127,"96":0.31643348932266235,"97":-1.35719895362854,"98":0.1321079134941101,"99":0.030389893800020218,"100":1.7714447975158691,"101":0.08029484748840332,"102":0.8127965927124023,"103":0.9550933837890625,"104":-0.5639131665229797,"105":0.9591196179389954,"106":-1.0854414701461792,"107":-0.2039371281862259,"108":-1.2871097326278687,"109":0.08986124396324158,"110":0.976186215877533,"111":0.4039505422115326,"112":0.44472798705101013,"113":1.4391714334487915,"114":0.8552912473678589,"115":0.0020712916739284992,"116":0.4505593180656433,"117":-0.6022889018058777,"118":1.0773814916610718,"119":-0.4308578372001648,"120":-0.01956985704600811,"121":0.417601615190506,"122":0.32228517532348633,"123":0.022939695045351982,"124":-0.9861177802085876,"125":-0.0887405276298523,"126":-0.36489179730415344,"127":-0.17377585172653198,"128":0.5360622406005859,"129":-0.08879929035902023,"130":0.16812048852443695,"131":0.10477519780397415,"132":-0.45171624422073364,"133":0.6818852424621582,"134":0.4570624828338623,"135":-0.5363113284111023,"136":-0.1542620211839676,"137":-0.6056014895439148,"138":0.02572016976773739,"139":0.06224782392382622,"140":1.416867733001709,"141":-0.3366498351097107,"142":-2.52945876121521,"143":-0.8198580741882324,"144":1.5749086141586304,"145":-0.9101278781890869,"146":-2.3261539936065674,"147":0.3677818179130554,"148":0.7305169701576233,"149":-0.369976282119751,"150":-1.812367558479309,"151":-2.5683863162994385,"152":-2.8035058975219727,"153":1.349782109260559,"154":-0.3342553675174713,"155":0.8720314502716064,"156":0.0003445091424509883,"157":-1.153277039527893,"158":-0.19023607671260834,"159":2.7853877544403076,"160":0.4680103361606598,"161":-0.6348076462745667,"162":0.5076953768730164,"163":0.5971047878265381,"164":0.09824686497449875,"165":-0.6658532023429871,"166":-0.47358977794647217,"167":-0.59161776304245,"168":1.134090542793274,"169":-0.8757038712501526,"170":0.13993845880031586,"171":2.4307196140289307,"172":-0.21493643522262573,"173":0.551295816898346,"174":0.707664966583252,"175":-0.32655277848243713,"176":0.6591010689735413,"177":-0.431095153093338,"178":0.42508625984191895,"179":-0.46455931663513184,"180":0.7408102750778198,"181":1.469719409942627,"182":-1.8024049997329712,"183":-1.6231486797332764,"184":0.7027278542518616,"185":-0.35603344440460205,"186":-1.8678812980651855,"187":-1.4085465669631958,"188":0.7347643971443176,"189":-0.23792172968387604,"190":0.6388140320777893,"191":-0.7050692439079285,"192":-0.3271029591560364,"193":0.8827089071273804,"194":0.307894766330719,"195":-0.28398770093917847,"196":0.34043800830841064,"197":-0.8577008247375488,"198":2.6017634868621826,"199":4.431883335113525,"200":0.2657715976238251,"201":0.6041773557662964,"202":-1.473464846611023,"203":-2.903289794921875,"204":-0.0849241316318512,"205":-1.7643765211105347,"206":-0.22039386630058289,"207":-0.831972062587738,"208":0.6154923439025879,"209":-0.1585763543844223,"210":0.16379205882549286,"211":-2.688136577606201,"212":-0.15663397312164307,"213":0.2210170328617096,"214":0.1138700395822525,"215":0.41799017786979675,"216":0.4834909439086914,"217":-0.23818910121917725,"218":0.17612777650356293,"219":1.7133371829986572,"220":0.11479838937520981,"221":1.3156317472457886,"222":-0.4363030791282654,"223":-0.7869032621383667,"224":1.8023968935012817,"225":0.3218592405319214,"226":-0.5013728737831116,"227":-0.7591555118560791,"228":-0.7392330169677734,"229":0.05925369635224342,"230":0.5949931740760803,"231":-1.5941559076309204,"232":1.6993179321289062,"233":-0.17619478702545166,"234":2.5120773315429688,"235":0.575022280216217,"236":-0.06977183371782303,"237":0.6523135304450989,"238":-2.049550771713257,"239":0.3945707082748413,"240":0.6554486751556396,"241":0.22024200856685638,"242":-0.2723906934261322,"243":0.11678274720907211,"244":-0.3507252335548401,"245":-0.4261963963508606,"246":-0.5614845156669617,"247":-0.45033931732177734,"248":0.27713724970817566,"249":-0.3780747652053833,"250":-0.2999420166015625,"251":0.31443554162979126,"252":-0.8216482400894165,"253":0.7373383045196533,"254":0.37702107429504395,"255":-0.13498078286647797,"256":0.388640433549881,"257":-0.9991810917854309,"258":0.7517185211181641,"259":-0.06487537920475006,"260":-0.06758426874876022,"261":-0.19776101410388947,"262":0.16541217267513275,"263":0.147858664393425,"264":-0.40504372119903564,"265":0.3732420802116394,"266":-0.8766173124313354,"267":0.08337698876857758,"268":-0.0714634358882904,"269":0.2337626814842224,"270":-0.22293587028980255,"271":0.4456827938556671,"272":-0.7904724478721619,"273":0.8216527104377747,"274":0.4223908483982086,"275":-1.0514274835586548,"276":-0.10015852004289627,"277":-1.171817421913147,"278":0.9085019826889038,"279":0.051252737641334534,"280":-2.316638708114624,"281":-0.11306211352348328,"282":2.5895581245422363,"283":2.6757571697235107,"284":1.157496690750122,"285":0.5123816132545471,"286":1.7438865900039673,"287":-0.6491166353225708,"288":-1.2821617126464844,"289":0.7500340342521667,"290":3.1136088371276855,"291":1.9385042190551758,"292":3.383127450942993,"293":-2.5936062335968018,"294":0.40752914547920227,"295":0.6684705018997192,"296":-0.6576552391052246,"297":2.299923896789551,"298":0.08926811069250107,"299":-3.113232374191284,"300":-1.8979671001434326,"301":-1.320802927017212,"302":2.027116537094116,"303":-1.4331134557724,"304":4.373355865478516,"305":-0.47798967361450195,"306":1.3700975179672241,"307":-0.699852705001831,"308":0.33250388503074646,"309":-0.9725441336631775,"310":-0.8276662826538086,"311":-0.6513792872428894,"312":1.0505632162094116,"313":-2.481018304824829,"314":-1.4379252195358276,"315":2.021596908569336,"316":0.6339890360832214,"317":1.42009699344635,"318":-0.1301647126674652,"319":-2.570899486541748,"320":1.0880547761917114,"321":1.0420079231262207,"322":-0.24751204252243042,"323":-1.8820706605911255,"324":0.31117144227027893,"325":-1.4948333501815796,"326":-2.086221218109131,"327":-1.5497334003448486,"328":0.3097834885120392,"329":-1.1963945627212524,"330":-1.0605257749557495,"331":-1.2373489141464233,"332":-1.479669213294983,"333":1.3009364604949951,"334":-0.13560804724693298,"335":0.37247082591056824,"336":0.5115143060684204,"337":-1.2995272874832153,"338":0.6184484362602234,"339":1.2207907438278198,"340":0.5645289421081543,"341":-0.03157174959778786,"342":-0.09513773769140244,"343":0.26128309965133667,"344":-0.22492697834968567,"345":-0.40104299783706665,"346":-0.533740758895874,"347":-0.41734060645103455,"348":0.18141914904117584,"349":-0.18149107694625854,"350":-0.1347809135913849,"351":0.511481523513794,"352":-0.7511406540870667,"353":0.6957576870918274,"354":0.011264296248555183,"355":-0.28922000527381897,"356":0.23068243265151978,"357":-0.776718020439148,"358":0.6617727875709534,"359":-0.14095847308635712,"360":1.523027777671814,"361":1.5770313739776611,"362":1.523503065109253,"363":-0.1751607209444046,"364":-1.8362009525299072,"365":1.623018503189087,"366":-2.4380524158477783,"367":-0.34596502780914307,"368":1.3332468271255493,"369":-1.2563822269439697,"370":-2.412813663482666,"371":2.415851354598999,"372":-0.3087080717086792,"373":2.0963523387908936,"374":0.08955790102481842,"375":-1.8885843753814697,"376":0.3142106235027313,"377":-1.8899215459823608,"378":0.4778343439102173,"379":-0.8383713960647583,"380":-0.38521304726600647,"381":-0.21735592186450958,"382":1.1124991178512573,"383":1.0925225019454956,"384":2.1576766967773438,"385":1.6304622888565063,"386":0.3712865114212036,"387":0.479880690574646,"388":-0.9177587628364563,"389":0.8480438590049744,"390":0.08133038878440857,"391":0.611322283744812,"392":1.382216215133667,"393":-0.34839800000190735,"394":1.6489503383636475,"395":-1.0895133018493652,"396":-0.7039114236831665,"397":0.7965983748435974,"398":-1.8918737173080444,"399":-1.4032903909683228}},"inputBias":{"rows":20,"columns":1,"weights":{"0":-0.6350582838058472,"1":-0.6416507363319397,"2":0.48137837648391724,"3":0.3347422480583191,"4":-0.6865983009338379,"5":0.35466670989990234,"6":-0.6521931290626526,"7":-1.1186944246292114,"8":-1.5276612043380737,"9":-0.6913617849349976,"10":-1.0380204916000366,"11":-0.9878992438316345,"12":-0.6658024191856384,"13":-0.5284626483917236,"14":0.9930452704429626,"15":-0.9411972761154175,"16":-0.6996623277664185,"17":-0.591733992099762,"18":-0.5532242059707642,"19":2.353034734725952}},"forgetMatrix":{"rows":20,"columns":29,"weights":{"0":-0.6363758444786072,"1":1.06108820438385,"2":0.18277131021022797,"3":-0.10023828595876694,"4":0.3843103051185608,"5":-0.7908058762550354,"6":0.49856889247894287,"7":-0.37105315923690796,"8":-1.34566330909729,"9":-0.08324801176786423,"10":0.6646168828010559,"11":1.4148850440979004,"12":1.375292420387268,"13":-0.618421196937561,"14":-1.309804916381836,"15":2.306908130645752,"16":-0.7861803770065308,"17":-0.23818469047546387,"18":2.958685874938965,"19":0.6921269297599792,"20":1.3722338676452637,"21":-0.02925221435725689,"22":-1.5124634504318237,"23":0.7450789213180542,"24":0.7234042882919312,"25":-1.3942780494689941,"26":1.0509837865829468,"27":-1.310075044631958,"28":0.4634009599685669,"29":-0.19773787260055542,"30":1.3836328983306885,"31":0.6979792714118958,"32":-0.9070267081260681,"33":-0.6787459850311279,"34":-0.8811953663825989,"35":0.9050577282905579,"36":-0.504920482635498,"37":-1.1814112663269043,"38":0.3126867115497589,"39":-0.41090282797813416,"40":-0.3259541392326355,"41":1.0915850400924683,"42":-1.217652440071106,"43":-1.5405521392822266,"44":2.894777297973633,"45":0.5545357465744019,"46":0.6490902304649353,"47":0.28767913579940796,"48":-0.9161618947982788,"49":0.9761385917663574,"50":-0.9680007696151733,"51":-1.0595673322677612,"52":0.7472222447395325,"53":0.8054468631744385,"54":-0.9307070970535278,"55":0.07606571912765503,"56":-0.004268552642315626,"57":1.2512588500976562,"58":-0.3909681439399719,"59":-0.8609024286270142,"60":-0.8053221702575684,"61":-0.21647077798843384,"62":-0.27612683176994324,"63":-0.23054476082324982,"64":-0.7155506014823914,"65":0.3994636833667755,"66":-0.2745630145072937,"67":0.45394083857536316,"68":0.805357813835144,"69":-0.15053214132785797,"70":0.04977316036820412,"71":0.7217215895652771,"72":0.6887345910072327,"73":-0.807795524597168,"74":0.2538987398147583,"75":0.18035553395748138,"76":-0.25534647703170776,"77":0.8308998346328735,"78":0.16294819116592407,"79":-0.1502390205860138,"80":-0.19378434121608734,"81":0.13686008751392365,"82":-0.5464735627174377,"83":-0.19320063292980194,"84":-0.515092670917511,"85":0.7360950112342834,"86":-0.8780455589294434,"87":0.2779979109764099,"88":-1.524433970451355,"89":-1.1051276922225952,"90":0.18365010619163513,"91":0.04238753393292427,"92":0.14310818910598755,"93":-1.239327311515808,"94":-0.17579558491706848,"95":0.13213326036930084,"96":0.5574686527252197,"97":0.5746942758560181,"98":-0.3043215572834015,"99":-0.2676323652267456,"100":1.4176315069198608,"101":1.5502238273620605,"102":-1.3844239711761475,"103":-0.1395815759897232,"104":-0.13665245473384857,"105":0.043782979249954224,"106":0.9291403889656067,"107":-0.07480084151029587,"108":-0.12177779525518417,"109":0.1751563549041748,"110":0.012804697267711163,"111":-1.1696064472198486,"112":0.07497590035200119,"113":-0.9317176938056946,"114":0.30211323499679565,"115":-0.9738674163818359,"116":-1.5300886631011963,"117":-0.3583296835422516,"118":0.67657470703125,"119":-0.6393457651138306,"120":-0.7945650815963745,"121":-2.1214447021484375,"122":0.22105464339256287,"123":1.1436898708343506,"124":-1.55619478225708,"125":0.1357450634241104,"126":-0.1798367202281952,"127":-0.32403525710105896,"128":1.7169287204742432,"129":-0.3551357388496399,"130":-0.36800163984298706,"131":0.4581848084926605,"132":1.8505195379257202,"133":0.5734725594520569,"134":-0.7327961921691895,"135":-0.29937589168548584,"136":1.2452037334442139,"137":-0.9304684400558472,"138":-2.1505210399627686,"139":1.6440794467926025,"140":-0.31295645236968994,"141":-1.7478291988372803,"142":-0.4105687141418457,"143":0.17468738555908203,"144":0.464517205953598,"145":0.6605432629585266,"146":-1.0849677324295044,"147":-1.1970891952514648,"148":-0.15068630874156952,"149":-0.3378831446170807,"150":0.2739136815071106,"151":-1.3809970617294312,"152":-0.45024025440216064,"153":0.2965572774410248,"154":0.5968049764633179,"155":0.8650560975074768,"156":-0.5973024368286133,"157":-0.20454958081245422,"158":1.2402528524398804,"159":1.3965153694152832,"160":-1.4336274862289429,"161":0.09017962962388992,"162":0.07802725583314896,"163":0.0788329616189003,"164":0.9563660621643066,"165":-0.36007869243621826,"166":-0.22040067613124847,"167":0.5500574707984924,"168":-0.11891785264015198,"169":-0.4167238771915436,"170":0.24713082611560822,"171":-1.0286728143692017,"172":1.360397219657898,"173":-1.1595314741134644,"174":0.02011137828230858,"175":0.9243465065956116,"176":0.5684280395507812,"177":0.14402052760124207,"178":0.4266664981842041,"179":0.6348539590835571,"180":0.6319698095321655,"181":-0.15193074941635132,"182":0.7577057480812073,"183":-1.208422303199768,"184":-0.7402956485748291,"185":0.4172465205192566,"186":-0.4351469874382019,"187":-0.676851212978363,"188":-0.8821751475334167,"189":0.5701679587364197,"190":-0.2870912551879883,"191":-0.5600980520248413,"192":0.5800819993019104,"193":-0.7136324048042297,"194":-0.8002012372016907,"195":0.9354241490364075,"196":0.45457619428634644,"197":-0.5051754713058472,"198":1.0450077056884766,"199":0.6600281000137329,"200":0.8154769539833069,"201":-1.2176480293273926,"202":0.7679439783096313,"203":0.42033442854881287,"204":0.6400097608566284,"205":0.4395875036716461,"206":1.1610043048858643,"207":0.610053300857544,"208":0.279945969581604,"209":0.7160465717315674,"210":0.6480679512023926,"211":-0.012344054877758026,"212":0.634524941444397,"213":-0.9660155177116394,"214":0.16894902288913727,"215":-0.2608766555786133,"216":-0.6887835264205933,"217":-0.5801453590393066,"218":0.3649158775806427,"219":-0.7216280102729797,"220":0.210667222738266,"221":-0.3598487079143524,"222":-0.5312047004699707,"223":-0.06446138024330139,"224":-0.23043397068977356,"225":0.268134742975235,"226":-0.17085909843444824,"227":1.362004280090332,"228":0.51984041929245,"229":1.2287814617156982,"230":0.35461875796318054,"231":0.6914150714874268,"232":0.6381379961967468,"233":-0.3905894458293915,"234":-0.24191981554031372,"235":0.4482673108577728,"236":0.5301337242126465,"237":-0.23201647400856018,"238":0.42553162574768066,"239":0.46557217836380005,"240":0.2976614236831665,"241":1.0942147970199585,"242":-0.011905433610081673,"243":0.5300471186637878,"244":-0.5690150856971741,"245":0.13858133554458618,"246":0.19576464593410492,"247":-0.5244094133377075,"248":0.19231818616390228,"249":-0.3046724200248718,"250":-0.7413305640220642,"251":0.22460637986660004,"252":0.12728293240070343,"253":-0.663750946521759,"254":-0.04954161122441292,"255":-0.24401146173477173,"256":-1.6649121046066284,"257":0.549201488494873,"258":-0.6591153144836426,"259":-0.05686625838279724,"260":-0.1571422517299652,"261":0.45627865195274353,"262":-0.44007009267807007,"263":-0.9956750869750977,"264":-0.3170718550682068,"265":-0.14178873598575592,"266":-0.45999079942703247,"267":-0.8164419531822205,"268":-0.5265595316886902,"269":-0.5914232730865479,"270":0.13179925084114075,"271":0.914834201335907,"272":0.07622995972633362,"273":0.30680981278419495,"274":1.3244274854660034,"275":1.232361912727356,"276":-0.4097732603549957,"277":0.2645682692527771,"278":0.2984693944454193,"279":0.551353931427002,"280":1.1264622211456299,"281":0.21034398674964905,"282":0.2870681881904602,"283":-0.42846834659576416,"284":-0.0743875578045845,"285":-1.753693699836731,"286":-0.30148249864578247,"287":-1.6516000032424927,"288":0.029847726225852966,"289":-0.9390771389007568,"290":-0.39714157581329346,"291":0.5177596211433411,"292":0.6674742698669434,"293":0.06482214480638504,"294":0.207088902592659,"295":-0.08519026637077332,"296":0.731278121471405,"297":0.28580567240715027,"298":0.027325227856636047,"299":-0.36934736371040344,"300":-0.6955083608627319,"301":0.0745324194431305,"302":0.12707263231277466,"303":-0.7321665287017822,"304":-0.6949512362480164,"305":0.6784093379974365,"306":-0.01857445389032364,"307":-0.040112435817718506,"308":-0.1037185862660408,"309":-0.6970206499099731,"310":0.09161028265953064,"311":0.29289281368255615,"312":-0.1105969250202179,"313":0.019319865852594376,"314":0.6315755248069763,"315":-0.02670987695455551,"316":0.6245814561843872,"317":-0.5158108472824097,"318":0.6610061526298523,"319":-0.5091174840927124,"320":-0.7348096370697021,"321":-1.323395013809204,"322":-1.0060036182403564,"323":0.42048215866088867,"324":-0.7652228474617004,"325":-1.0617663860321045,"326":0.8990797400474548,"327":-1.0361379384994507,"328":-0.5997034907341003,"329":1.1089142560958862,"330":1.2027217149734497,"331":0.9452471137046814,"332":0.6890926361083984,"333":0.9360739588737488,"334":-1.0878301858901978,"335":0.7756394743919373,"336":0.9616181254386902,"337":-0.5265179872512817,"338":1.0513136386871338,"339":0.5776917934417725,"340":-0.12568503618240356,"341":-0.9045408964157104,"342":0.4713529646396637,"343":0.29900097846984863,"344":-0.6133382320404053,"345":0.19517789781093597,"346":-0.9707655906677246,"347":-1.020919680595398,"348":0.7899166941642761,"349":1.32072114944458,"350":0.8215360045433044,"351":1.1252245903015137,"352":0.310370534658432,"353":0.07419352978467941,"354":0.8508014678955078,"355":-0.5117160081863403,"356":0.007623330224305391,"357":-1.4287277460098267,"358":-0.8752139806747437,"359":0.7240521907806396,"360":-0.05726282671093941,"361":-0.9176158308982849,"362":-0.7013711333274841,"363":1.0649704933166504,"364":-0.5534228682518005,"365":-0.567133903503418,"366":0.9803562760353088,"367":-0.5745398998260498,"368":-0.7083591818809509,"369":0.7404299378395081,"370":0.09423699975013733,"371":-0.4197884798049927,"372":0.10089653730392456,"373":0.5330082774162292,"374":0.34489700198173523,"375":0.0521017424762249,"376":0.7644399404525757,"377":0.511340856552124,"378":0.5313773155212402,"379":0.16877621412277222,"380":1.1257588863372803,"381":0.9856682419776917,"382":1.00811767578125,"383":0.047425929456949234,"384":-0.5565370917320251,"385":0.8916139602661133,"386":-1.2822184562683105,"387":-0.3275296688079834,"388":0.6679096221923828,"389":-0.8292818665504456,"390":-0.10864412784576416,"391":-0.27810361981391907,"392":0.17016220092773438,"393":-1.0024669170379639,"394":-0.9232995510101318,"395":0.8958015441894531,"396":-0.2901495099067688,"397":-1.0973116159439087,"398":0.9996828436851501,"399":0.9088796377182007,"400":-1.160836935043335,"401":0.806771457195282,"402":1.01923406124115,"403":0.49150609970092773,"404":-1.2802636623382568,"405":0.23629997670650482,"406":-1.2371046543121338,"407":-0.597427487373352,"408":-0.35367757081985474,"409":-0.8188502192497253,"410":-0.7507373094558716,"411":-0.7513450980186462,"412":-0.4014933109283447,"413":0.9949396848678589,"414":-0.6999762654304504,"415":0.9179797172546387,"416":0.5671494007110596,"417":-0.9346178770065308,"418":0.6347341537475586,"419":0.5610595941543579,"420":0.3100532293319702,"421":-0.23379690945148468,"422":0.5498172044754028,"423":0.7305047512054443,"424":-0.6247107982635498,"425":0.4307078719139099,"426":0.8517494201660156,"427":-0.9080380797386169,"428":-0.6409880518913269,"429":0.7496887445449829,"430":-0.1876935511827469,"431":-0.8942843079566956,"432":-0.04860642924904823,"433":0.8937404155731201,"434":-0.28109633922576904,"435":0.248747318983078,"436":-0.669147253036499,"437":-0.5519148707389832,"438":-0.4265979826450348,"439":-0.27933380007743835,"440":-0.45783618092536926,"441":-0.39390677213668823,"442":0.07756173610687256,"443":-0.6653307676315308,"444":0.7862153649330139,"445":0.4627472162246704,"446":-0.5667879581451416,"447":0.5811924934387207,"448":0.5037548542022705,"449":0.6278781890869141,"450":-0.6539180874824524,"451":0.5607044696807861,"452":0.5798619389533997,"453":-0.3964990973472595,"454":0.5558136701583862,"455":0.5661664009094238,"456":-0.7763027548789978,"457":-0.23550252616405487,"458":0.5858162045478821,"459":-0.7304314970970154,"460":-0.33301636576652527,"461":-0.6771794557571411,"462":0.974031388759613,"463":-0.5659058094024658,"464":-0.3407396078109741,"465":-0.29275721311569214,"466":0.42720603942871094,"467":0.6281410455703735,"468":0.5858256816864014,"469":-0.11518529802560806,"470":0.8265225887298584,"471":0.4510367810726166,"472":0.03065512701869011,"473":-0.4312889277935028,"474":-0.5546630620956421,"475":0.6608543992042542,"476":-0.14913180470466614,"477":-0.4428136646747589,"478":-0.7275903224945068,"479":0.21529118716716766,"480":0.002480183495208621,"481":-0.2866706848144531,"482":-0.2235894352197647,"483":-0.0995970219373703,"484":0.07003399729728699,"485":1.3174116611480713,"486":-0.07779844850301743,"487":0.02739320881664753,"488":-0.9003326296806335,"489":0.18514202535152435,"490":0.24506443738937378,"491":-1.3099782466888428,"492":0.3300876319408417,"493":-0.6485822200775146,"494":1.2096707820892334,"495":0.9859918355941772,"496":-0.4220711588859558,"497":-0.26052147150039673,"498":-0.538479208946228,"499":0.6863385438919067,"500":0.4873957931995392,"501":-0.25372424721717834,"502":-0.9539867639541626,"503":-1.01064932346344,"504":-0.31355658173561096,"505":0.3625756502151489,"506":-0.8611659407615662,"507":-0.9834804534912109,"508":0.6865330934524536,"509":0.6516056060791016,"510":0.21363267302513123,"511":-0.43296313285827637,"512":-1.0393925905227661,"513":0.4664488732814789,"514":0.726628303527832,"515":-0.554264485836029,"516":0.6431816220283508,"517":0.9831791520118713,"518":-0.5050015449523926,"519":0.9085472226142883,"520":-1.186314344406128,"521":1.066150426864624,"522":-0.34702068567276,"523":1.2986847162246704,"524":0.584208071231842,"525":-0.5761882662773132,"526":-0.5492042303085327,"527":-0.5854266285896301,"528":1.2742929458618164,"529":-0.1551240086555481,"530":-1.0586470365524292,"531":0.02445160783827305,"532":-0.41025838255882263,"533":0.08488697558641434,"534":1.1197611093521118,"535":-1.570317029953003,"536":-1.6331957578659058,"537":1.7426366806030273,"538":0.20743301510810852,"539":0.6898558735847473,"540":0.5707560181617737,"541":-0.09350946545600891,"542":0.8857799768447876,"543":-1.3072372674942017,"544":-0.7537615895271301,"545":0.5619231462478638,"546":1.6192090511322021,"547":-1.009065866470337,"548":0.3481387794017792,"549":0.6807839870452881,"550":0.4761476218700409,"551":-0.672226071357727,"552":-0.5344727635383606,"553":-0.5543087124824524,"554":-0.39949411153793335,"555":-0.34693631529808044,"556":-0.42730340361595154,"557":-0.3463517129421234,"558":0.8225491046905518,"559":-0.4820324778556824,"560":0.5334501266479492,"561":0.739513635635376,"562":-0.6489670872688293,"563":0.45875948667526245,"564":0.5779293179512024,"565":0.6434735059738159,"566":-0.18273738026618958,"567":0.2577347159385681,"568":0.6167157888412476,"569":-0.7895925641059875,"570":0.5671050548553467,"571":0.6210036277770996,"572":-0.7405083775520325,"573":-0.29907217621803284,"574":0.40398263931274414,"575":-0.32578223943710327,"576":-0.5389909744262695,"577":-0.256077378988266,"578":0.6277551651000977,"579":-0.5128006935119629}},"forgetHidden":{"rows":20,"columns":20,"weights":{"0":-0.3838094472885132,"1":-0.684807538986206,"2":-1.4811100959777832,"3":-2.678945779800415,"4":1.7538752555847168,"5":1.4613165855407715,"6":0.17149242758750916,"7":0.6793046593666077,"8":2.2816834449768066,"9":0.7557591795921326,"10":1.6914116144180298,"11":-0.9225291013717651,"12":1.380847454071045,"13":-0.6831637024879456,"14":-0.5790379047393799,"15":0.1127658262848854,"16":-1.0425515174865723,"17":0.5270693302154541,"18":0.3502804934978485,"19":2.7527520656585693,"20":-1.2305800914764404,"21":-0.20210206508636475,"22":-0.5047963261604309,"23":-0.059100281447172165,"24":0.46847838163375854,"25":1.0251219272613525,"26":0.7105357646942139,"27":0.17230096459388733,"28":-0.7380568385124207,"29":0.280636727809906,"30":0.7911632657051086,"31":0.6436177492141724,"32":0.5757061839103699,"33":-0.779509961605072,"34":0.10636358708143234,"35":-0.32507413625717163,"36":-0.7191769480705261,"37":1.0315923690795898,"38":-0.7108882069587708,"39":0.8235761523246765,"40":-0.36440572142601013,"41":-1.121653437614441,"42":-0.3894002139568329,"43":-0.3068525195121765,"44":0.4595440924167633,"45":0.15816834568977356,"46":-0.14348813891410828,"47":1.306649923324585,"48":-0.9937083721160889,"49":1.0391496419906616,"50":0.6895835399627686,"51":0.23183253407478333,"52":0.3575606048107147,"53":-0.2661857306957245,"54":-1.1253615617752075,"55":0.3685506284236908,"56":-1.1065387725830078,"57":0.5944498777389526,"58":-0.7189797163009644,"59":-0.21886515617370605,"60":0.26720932126045227,"61":-0.14535196125507355,"62":0.046208303421735764,"63":0.36306026577949524,"64":-0.5902402400970459,"65":-0.7590764760971069,"66":-0.842332661151886,"67":0.16434325277805328,"68":-0.16105584800243378,"69":0.07142394036054611,"70":0.810492217540741,"71":-0.04120239242911339,"72":0.5137612223625183,"73":0.6481591463088989,"74":0.545222818851471,"75":0.3823148310184479,"76":0.1964760720729828,"77":-0.054413504898548126,"78":-2.915818929672241,"79":-0.14447741210460663,"80":-0.6947500109672546,"81":-0.3410731256008148,"82":0.68956458568573,"83":-0.29626575112342834,"84":-0.4762132167816162,"85":-0.0874989703297615,"86":0.8157116174697876,"87":-0.9184046387672424,"88":-0.9289591312408447,"89":-0.08856768906116486,"90":0.9491256475448608,"91":-1.0406402349472046,"92":0.8605623245239258,"93":-0.7586151957511902,"94":0.3745356500148773,"95":-0.02463316172361374,"96":-0.20142625272274017,"97":0.2372705191373825,"98":-0.8702183365821838,"99":-0.5694409012794495,"100":-1.200695514678955,"101":-0.6235140562057495,"102":1.2339781522750854,"103":0.5740578174591064,"104":-0.0713949203491211,"105":1.0404198169708252,"106":-0.010787012986838818,"107":0.3049332797527313,"108":-0.3536105751991272,"109":-0.015086809173226357,"110":-0.4117363393306732,"111":0.7605961561203003,"112":0.2899162173271179,"113":-0.18851299583911896,"114":0.15095768868923187,"115":-0.09829053282737732,"116":0.06416284292936325,"117":0.14759321510791779,"118":-0.9075013995170593,"119":-1.0632230043411255,"120":0.09501899033784866,"121":-0.48600661754608154,"122":-0.7938979864120483,"123":-0.20735974609851837,"124":0.7675316333770752,"125":-0.5179005861282349,"126":-0.3478284180164337,"127":0.06035904958844185,"128":0.03568592667579651,"129":0.5655912160873413,"130":0.23319056630134583,"131":0.09333599358797073,"132":-0.13318341970443726,"133":0.22157053649425507,"134":-0.46827900409698486,"135":0.23307117819786072,"136":-0.4340269863605499,"137":-0.10116355866193771,"138":0.4490507245063782,"139":0.5995346903800964,"140":3.6594738960266113,"141":1.875922441482544,"142":0.061915211379528046,"143":0.1615574061870575,"144":-0.10354459285736084,"145":0.14234165847301483,"146":-1.3690391778945923,"147":-0.9774723052978516,"148":0.9697601795196533,"149":-0.5370997786521912,"150":-1.1114095449447632,"151":-0.054179366677999496,"152":-1.3965458869934082,"153":1.5702745914459229,"154":-0.07929383218288422,"155":-1.210355520248413,"156":1.43483304977417,"157":-1.9239953756332397,"158":-0.903802752494812,"159":0.6781607866287231,"160":1.0950716733932495,"161":0.19811762869358063,"162":-1.1033270359039307,"163":-1.6512172222137451,"164":0.30089423060417175,"165":-1.6153466701507568,"166":-0.16696643829345703,"167":-0.4090895652770996,"168":1.778161883354187,"169":-0.576457679271698,"170":-0.30714085698127747,"171":-2.970439910888672,"172":-0.44397932291030884,"173":0.27468985319137573,"174":0.7351527810096741,"175":-0.3749007284641266,"176":0.2687976658344269,"177":0.344952255487442,"178":0.5683503746986389,"179":2.491854190826416,"180":1.2348517179489136,"181":0.46166881918907166,"182":-0.6626654863357544,"183":0.4569924771785736,"184":-0.5388315916061401,"185":0.46855947375297546,"186":-0.5754743218421936,"187":-0.6192196011543274,"188":-1.011721134185791,"189":-0.2878032922744751,"190":-0.05172121897339821,"191":0.1733044683933258,"192":-0.851032018661499,"193":0.5855295658111572,"194":1.669297456741333,"195":-0.16110455989837646,"196":0.6340494155883789,"197":-0.9836260080337524,"198":1.0546032190322876,"199":1.7480767965316772,"200":0.5073649883270264,"201":0.6665449142456055,"202":0.11205591261386871,"203":0.07848747819662094,"204":0.12316448241472244,"205":-0.052431102842092514,"206":-0.4288482069969177,"207":-0.6097254753112793,"208":0.40585264563560486,"209":-0.44078242778778076,"210":-0.44756603240966797,"211":0.22853577136993408,"212":-0.40551677346229553,"213":0.584113597869873,"214":0.07064998149871826,"215":-0.40525564551353455,"216":0.507158637046814,"217":-0.47633785009384155,"218":0.4629019796848297,"219":-0.017022736370563507,"220":-1.1963132619857788,"221":-0.4867846369743347,"222":0.4617137014865875,"223":-0.07485300302505493,"224":-0.7299337387084961,"225":0.09146519750356674,"226":0.34817004203796387,"227":0.7920705676078796,"228":-1.3913170099258423,"229":0.5697166323661804,"230":0.5455317497253418,"231":0.17207665741443634,"232":-0.7831907868385315,"233":0.20600058138370514,"234":-0.47813522815704346,"235":-0.4121972620487213,"236":-0.6388813853263855,"237":-0.003367121797055006,"238":-0.48572394251823425,"239":0.0871233195066452,"240":-0.10066671669483185,"241":-1.3532122373580933,"242":-1.0647822618484497,"243":-0.3436110019683838,"244":0.43063756823539734,"245":-0.34753045439720154,"246":0.15782201290130615,"247":1.0891363620758057,"248":-0.23538506031036377,"249":0.816859245300293,"250":0.3651544749736786,"251":-1.004806637763977,"252":0.25732162594795227,"253":-0.1630287617444992,"254":-0.31653067469596863,"255":-0.13432320952415466,"256":-1.1298786401748657,"257":0.12984001636505127,"258":-0.4958202540874481,"259":0.3996734917163849,"260":-0.27447161078453064,"261":-0.7898298501968384,"262":-0.3726438283920288,"263":-0.052528440952301025,"264":0.7336208820343018,"265":-0.274142324924469,"266":0.2637176811695099,"267":0.45339545607566833,"268":-0.139055997133255,"269":0.9866135716438293,"270":0.9112640619277954,"271":-0.04739726707339287,"272":0.44401395320892334,"273":-0.10668504238128662,"274":-0.2874830365180969,"275":0.012253629975020885,"276":-1.3665881156921387,"277":0.3191646337509155,"278":-0.008478022180497646,"279":0.27847641706466675,"280":0.10218797624111176,"281":-0.7318617105484009,"282":0.2432008534669876,"283":0.32671138644218445,"284":0.2515903115272522,"285":0.1832296997308731,"286":0.03996987268328667,"287":0.9540241956710815,"288":-0.08288466930389404,"289":0.9174723625183105,"290":0.6487409472465515,"291":-0.42012619972229004,"292":0.245933398604393,"293":0.06864839792251587,"294":0.13216142356395721,"295":0.06670030951499939,"296":-0.8075681924819946,"297":0.6690361499786377,"298":-0.48430871963500977,"299":-0.4968452453613281,"300":0.16544649004936218,"301":0.23355086147785187,"302":-0.4037840664386749,"303":-0.7257207036018372,"304":0.12937016785144806,"305":-1.1775418519973755,"306":0.2496747225522995,"307":-1.359595775604248,"308":0.21573275327682495,"309":-0.965457022190094,"310":-0.6437405347824097,"311":0.12212183326482773,"312":-0.2245289832353592,"313":0.04981401935219765,"314":-1.2043262720108032,"315":-0.2648613452911377,"316":0.4668930470943451,"317":-0.26932233572006226,"318":-0.4345594346523285,"319":0.7612568140029907,"320":1.7268496751785278,"321":0.5553785562515259,"322":-1.6810170412063599,"323":-1.3844913244247437,"324":1.0520373582839966,"325":-0.15733666718006134,"326":-1.3593699932098389,"327":-0.4427112936973572,"328":0.5659745931625366,"329":-0.7109191417694092,"330":-1.3448548316955566,"331":-1.4101158380508423,"332":-2.435450792312622,"333":1.2963982820510864,"334":0.266823947429657,"335":-0.04691073298454285,"336":0.8690367937088013,"337":-0.5475054383277893,"338":0.476915180683136,"339":2.0828189849853516,"340":0.26748648285865784,"341":-0.3351263105869293,"342":0.040348559617996216,"343":-0.006068620830774307,"344":0.6256408095359802,"345":-0.4353494942188263,"346":-0.2508625090122223,"347":-0.14178058505058289,"348":0.138189896941185,"349":0.1636640578508377,"350":0.08347175270318985,"351":0.24419143795967102,"352":0.1907006800174713,"353":0.3017730712890625,"354":0.027301974594593048,"355":-0.08710785210132599,"356":-0.16371391713619232,"357":-0.3060319125652313,"358":0.49321624636650085,"359":-0.33675897121429443,"360":-0.7294763922691345,"361":-1.8929945230484009,"362":0.30039066076278687,"363":1.2521916627883911,"364":1.613054871559143,"365":-0.25516417622566223,"366":0.45711377263069153,"367":-0.7889752388000488,"368":0.2719727158546448,"369":2.0137712955474854,"370":0.2854139506816864,"371":1.859716773033142,"372":0.4053160548210144,"373":-0.4363957643508911,"374":1.17094886302948,"375":0.26352837681770325,"376":-2.3061866760253906,"377":0.531947910785675,"378":-2.0810625553131104,"379":0.824739933013916,"380":-0.4019961953163147,"381":-0.8291385769844055,"382":0.1027582511305809,"383":0.19705313444137573,"384":0.7145901918411255,"385":0.22917509078979492,"386":0.15387019515037537,"387":0.8827124834060669,"388":-1.4105600118637085,"389":0.7841705679893494,"390":0.8051003217697144,"391":0.22888971865177155,"392":0.7447335720062256,"393":-0.30563870072364807,"394":0.006662851665169001,"395":0.11233305931091309,"396":-0.7942849397659302,"397":0.35429540276527405,"398":-0.3271843194961548,"399":-0.13964909315109253}},"forgetBias":{"rows":20,"columns":1,"weights":{"0":0,"1":0,"2":0,"3":0,"4":0,"5":0,"6":0,"7":0,"8":0,"9":0,"10":0,"11":0,"12":0,"13":0,"14":0,"15":0,"16":0,"17":0,"18":0,"19":0}},"outputMatrix":{"rows":20,"columns":29,"weights":{"0":-0.848973274230957,"1":-0.12556959688663483,"2":0.4489278495311737,"3":0.3991051912307739,"4":0.42116808891296387,"5":-1.102089285850525,"6":0.2164243906736374,"7":0.9450458288192749,"8":-0.5780408978462219,"9":-1.36406409740448,"10":-0.5361306071281433,"11":0.1398344486951828,"12":0.3969437777996063,"13":0.2001059651374817,"14":0.10241381824016571,"15":1.036630392074585,"16":-0.28117606043815613,"17":-0.25422096252441406,"18":-0.3253209888935089,"19":-0.10321024805307388,"20":0.3996592164039612,"21":0.9330805540084839,"22":-0.6052262187004089,"23":0.5122767090797424,"24":-0.5619415640830994,"25":-0.5537013411521912,"26":-0.5308831930160522,"27":-1.1160238981246948,"28":0.5914248824119568,"29":-0.18697592616081238,"30":-0.0020787068642675877,"31":1.268713355064392,"32":1.07167649269104,"33":0.158506840467453,"34":0.42522314190864563,"35":0.7081456184387207,"36":-0.5238199234008789,"37":0.507979154586792,"38":1.247573733329773,"39":-0.9165914058685303,"40":-0.4247977137565613,"41":-0.43235069513320923,"42":-1.1258316040039062,"43":-1.15104341506958,"44":0.3116556704044342,"45":-0.5323807597160339,"46":-0.8778215646743774,"47":0.005115560255944729,"48":-1.1227927207946777,"49":-0.14570525288581848,"50":1.109907865524292,"51":0.4573346972465515,"52":0.14219851791858673,"53":-0.34526562690734863,"54":0.2659893035888672,"55":0.14702172577381134,"56":-0.3010093867778778,"57":0.5963444709777832,"58":0.16432450711727142,"59":1.0474241971969604,"60":0.6633836030960083,"61":0.6338417530059814,"62":0.3570314049720764,"63":0.23551779985427856,"64":0.5235716700553894,"65":0.35171934962272644,"66":0.07973983883857727,"67":-1.241328477859497,"68":-1.0499054193496704,"69":0.21022051572799683,"70":-0.16188666224479675,"71":-0.8668959736824036,"72":-1.077317476272583,"73":0.6943007707595825,"74":-0.6406099796295166,"75":-0.10260273516178131,"76":0.459212064743042,"77":-0.9306173920631409,"78":-0.8130976557731628,"79":0.845659077167511,"80":0.2789134681224823,"81":-0.69856858253479,"82":1.489749550819397,"83":0.42016252875328064,"84":1.3301331996917725,"85":-2.032621145248413,"86":0.783492922782898,"87":-0.22047866880893707,"88":-0.25880181789398193,"89":-0.4266737699508667,"90":0.3743383288383484,"91":-0.007064280100166798,"92":0.8654860854148865,"93":-1.0960248708724976,"94":0.255063533782959,"95":1.241461157798767,"96":0.21838539838790894,"97":0.15297868847846985,"98":-0.5994426608085632,"99":-0.7663636803627014,"100":0.7139226198196411,"101":0.7135527729988098,"102":-0.7796128988265991,"103":-0.6125456094741821,"104":-0.4822230935096741,"105":0.14463113248348236,"106":0.014791307039558887,"107":-0.7678708434104919,"108":-0.11080320924520493,"109":1.0769543647766113,"110":-0.6321077346801758,"111":0.5091361999511719,"112":0.5845930576324463,"113":0.05583605542778969,"114":-0.6129303574562073,"115":-0.23254705965518951,"116":-1.1157445907592773,"117":0.338324636220932,"118":0.015808304771780968,"119":-1.2238609790802002,"120":-0.7890530228614807,"121":-1.3182011842727661,"122":0.2883334159851074,"123":0.6410817503929138,"124":-1.3316293954849243,"125":1.5687570571899414,"126":-0.11000336706638336,"127":-0.797488272190094,"128":1.1971458196640015,"129":-0.38252392411231995,"130":-0.4980517327785492,"131":0.5256677865982056,"132":0.8103198409080505,"133":1.2530517578125,"134":-0.33954885601997375,"135":-0.664238452911377,"136":1.1005756855010986,"137":-1.7582322359085083,"138":-0.9446913003921509,"139":0.7533575296401978,"140":1.2730687856674194,"141":-1.0077803134918213,"142":1.0076887607574463,"143":0.8447596430778503,"144":0.47541770339012146,"145":0.41405877470970154,"146":-0.20131942629814148,"147":0.20180845260620117,"148":1.7484595775604248,"149":1.6643311977386475,"150":1.2965037822723389,"151":-0.30970752239227295,"152":-1.337809681892395,"153":1.1464320421218872,"154":-0.2063807249069214,"155":-0.6575573682785034,"156":0.18475739657878876,"157":-1.1979169845581055,"158":0.33491048216819763,"159":0.1488994061946869,"160":-0.28573736548423767,"161":-1.6563422679901123,"162":-1.0397216081619263,"163":0.9892574548721313,"164":0.009728306904435158,"165":-1.1050070524215698,"166":0.09304317086935043,"167":1.7412915229797363,"168":-1.3801132440567017,"169":0.00493598124012351,"170":1.1790283918380737,"171":0.08744893223047256,"172":-1.220620036125183,"173":0.3602730631828308,"174":-1.3588236570358276,"175":0.42269378900527954,"176":0.7505829334259033,"177":-1.1422593593597412,"178":-1.0580768585205078,"179":-0.771403431892395,"180":0.19768768548965454,"181":0.904059648513794,"182":-0.29577627778053284,"183":0.7658737301826477,"184":-0.6530025601387024,"185":-1.9531118869781494,"186":0.6763566732406616,"187":-0.5814157724380493,"188":-0.9190494418144226,"189":0.4344365894794464,"190":0.8289062976837158,"191":0.7821515798568726,"192":-0.6022220253944397,"193":-0.47242501378059387,"194":1.032249927520752,"195":-0.38954290747642517,"196":-0.9716207385063171,"197":1.2693053483963013,"198":0.8261815905570984,"199":-1.5718656778335571,"200":0.5375425815582275,"201":-0.1938151866197586,"202":0.796360194683075,"203":1.2230503559112549,"204":0.7258670926094055,"205":0.4605931043624878,"206":1.2555192708969116,"207":0.4605850875377655,"208":0.6824133992195129,"209":0.893869936466217,"210":-0.7400096654891968,"211":0.126754030585289,"212":-0.2018498182296753,"213":-1.4157711267471313,"214":0.2819794714450836,"215":-0.5032479166984558,"216":-1.1985721588134766,"217":-0.9741334915161133,"218":0.436102032661438,"219":-0.8981053829193115,"220":-0.5215754508972168,"221":0.4000379145145416,"222":-0.5694501996040344,"223":-0.4834972620010376,"224":1.231295108795166,"225":0.8508816361427307,"226":-0.4269135296344757,"227":1.1139947175979614,"228":0.7726132273674011,"229":0.8258687853813171,"230":-1.4408286809921265,"231":0.5133417248725891,"232":1.5282282829284668,"233":-0.10282794386148453,"234":0.036240894347429276,"235":-0.611750602722168,"236":0.29887229204177856,"237":0.48225268721580505,"238":0.4097740054130554,"239":-1.5826839208602905,"240":0.5450096130371094,"241":0.22506354749202728,"242":0.9329033493995667,"243":0.9759251475334167,"244":-0.2800332009792328,"245":-0.45824992656707764,"246":-0.5932029485702515,"247":0.15664781630039215,"248":0.7272343635559082,"249":-0.7388834953308105,"250":1.198153018951416,"251":0.7614977955818176,"252":-0.2715807557106018,"253":0.831847608089447,"254":-0.270041286945343,"255":0.48380622267723083,"256":-0.8072519898414612,"257":0.6800407767295837,"258":-0.6020436882972717,"259":0.2116718739271164,"260":-0.7555351853370667,"261":-0.5092191696166992,"262":0.514376699924469,"263":0.8898550868034363,"264":0.28036653995513916,"265":0.7572423219680786,"266":-0.276346355676651,"267":1.175114631652832,"268":0.28293898701667786,"269":-0.42067381739616394,"270":-0.5131043791770935,"271":-0.17923112213611603,"272":1.1894432306289673,"273":0.18839700520038605,"274":-1.1183321475982666,"275":-1.3230451345443726,"276":1.2171658277511597,"277":0.022407827898859978,"278":-0.32897883653640747,"279":-0.25031524896621704,"280":-0.33179935812950134,"281":0.4263261556625366,"282":0.408361554145813,"283":-0.4199799597263336,"284":0.30050036311149597,"285":-0.41060641407966614,"286":-0.06262507289648056,"287":0.5091363191604614,"288":-1.1207599639892578,"289":0.736367404460907,"290":-0.2042360156774521,"291":-0.19045224785804749,"292":-0.05963872745633125,"293":-0.35193562507629395,"294":-0.07185699790716171,"295":-0.978736937046051,"296":-0.19705264270305634,"297":-0.3114137649536133,"298":-1.128980040550232,"299":0.9981374740600586,"300":-0.0625593438744545,"301":-0.42294612526893616,"302":1.0058469772338867,"303":0.10024740546941757,"304":0.11630230396986008,"305":-0.2175479531288147,"306":0.5144014358520508,"307":0.5310456156730652,"308":-0.18083499372005463,"309":0.33120983839035034,"310":0.9257936477661133,"311":-0.8011993765830994,"312":-0.7841242551803589,"313":0.7072415351867676,"314":-0.5304213762283325,"315":-0.8051390051841736,"316":-0.6712039709091187,"317":-0.1764136403799057,"318":-0.2274368852376938,"319":0.33490997552871704,"320":2.0162594318389893,"321":0.36634230613708496,"322":-0.1783183217048645,"323":0.18994149565696716,"324":0.13619884848594666,"325":0.402264803647995,"326":-1.0260653495788574,"327":-0.3208702504634857,"328":-0.3692001700401306,"329":0.32257306575775146,"330":1.1571327447891235,"331":0.3999009430408478,"332":-0.8639129996299744,"333":-1.2013299465179443,"334":1.2034227848052979,"335":-0.06516364216804504,"336":-0.34024468064308167,"337":1.0187801122665405,"338":-0.27427658438682556,"339":0.070224829018116,"340":0.10741912573575974,"341":-0.2581871747970581,"342":-0.03241657838225365,"343":0.409956157207489,"344":-0.2451351284980774,"345":0.3863079249858856,"346":-0.5232976078987122,"347":0.47274160385131836,"348":0.11905913054943085,"349":0.4693607985973358,"350":0.36200159788131714,"351":-0.5133993029594421,"352":-1.0808454751968384,"353":-1.669058918952942,"354":0.3101217746734619,"355":-0.6781609058380127,"356":-1.070939302444458,"357":-0.5634234547615051,"358":0.2621622681617737,"359":0.17516469955444336,"360":1.4624218940734863,"361":-0.22867339849472046,"362":0.044630419462919235,"363":0.3711742162704468,"364":2.010850191116333,"365":0.04914170503616333,"366":-0.24140198528766632,"367":0.25016823410987854,"368":0.771537721157074,"369":-1.0777990818023682,"370":-1.6659631729125977,"371":1.5591621398925781,"372":-1.40058171749115,"373":-0.8738996982574463,"374":-0.7681300044059753,"375":2.2890942096710205,"376":-0.05137199908494949,"377":-1.5254765748977661,"378":0.5299267768859863,"379":0.8501534461975098,"380":-0.7852571606636047,"381":-0.5896499752998352,"382":-1.3404866456985474,"383":0.27117493748664856,"384":1.5088307857513428,"385":-1.0620861053466797,"386":0.21205198764801025,"387":-0.8163012862205505,"388":-1.3762781620025635,"389":0.9309536218643188,"390":-0.4648897647857666,"391":-0.5453209280967712,"392":0.8444266319274902,"393":0.5090322494506836,"394":0.9292791485786438,"395":-1.1344884634017944,"396":-0.17370697855949402,"397":1.5158882141113281,"398":-0.4196779131889343,"399":-1.2763073444366455,"400":1.900097370147705,"401":0.36598479747772217,"402":-2.009437322616577,"403":0.20430564880371094,"404":-0.41204091906547546,"405":0.7374046444892883,"406":-0.24016758799552917,"407":0.11993613839149475,"408":0.14191249012947083,"409":0.47649329900741577,"410":0.44891732931137085,"411":1.2118719816207886,"412":-0.11586134135723114,"413":0.08565956354141235,"414":1.7755892276763916,"415":0.2287292182445526,"416":-0.40839698910713196,"417":-0.042648542672395706,"418":-1.4894580841064453,"419":-0.22374363243579865,"420":-0.2961432635784149,"421":-0.19680315256118774,"422":-0.7550019025802612,"423":-0.5287330150604248,"424":0.20346665382385254,"425":-0.4312463402748108,"426":-1.045661449432373,"427":0.4156883656978607,"428":1.23214590549469,"429":-0.9661768078804016,"430":1.158831000328064,"431":1.0826154947280884,"432":0.8774113059043884,"433":-0.3571816682815552,"434":0.2748517394065857,"435":1.03618323802948,"436":-0.4227652847766876,"437":-0.6108059883117676,"438":0.6766874194145203,"439":0.943671703338623,"440":1.0957967042922974,"441":-0.06473428010940552,"442":-0.6856204867362976,"443":1.2899802923202515,"444":0.036024533212184906,"445":0.4253654181957245,"446":0.6939687728881836,"447":-1.560458779335022,"448":0.14492927491664886,"449":0.35476967692375183,"450":-0.482854962348938,"451":-0.24038174748420715,"452":-1.0403029918670654,"453":0.0018723318353295326,"454":0.6557286381721497,"455":-1.1808624267578125,"456":0.49266260862350464,"457":0.9988303780555725,"458":-1.0846848487854004,"459":-0.8586055040359497,"460":1.285984754562378,"461":-0.5181397795677185,"462":0.4917178452014923,"463":-0.6613455414772034,"464":-0.18664538860321045,"465":-0.7942654490470886,"466":0.20281237363815308,"467":0.5958390235900879,"468":0.3163261413574219,"469":-0.08560322970151901,"470":0.5895494818687439,"471":-0.10550680756568909,"472":-0.7570971846580505,"473":0.6428861618041992,"474":0.6387882232666016,"475":0.9817013144493103,"476":0.31445032358169556,"477":-0.9569879770278931,"478":-0.912504255771637,"479":1.5125913619995117,"480":-0.5741512179374695,"481":-0.39248234033584595,"482":0.6394637823104858,"483":0.2730824053287506,"484":0.39570850133895874,"485":-0.5662732124328613,"486":-0.40603330731391907,"487":-0.0006451397784985602,"488":-0.586072564125061,"489":0.07585795968770981,"490":0.205735445022583,"491":-1.1267950534820557,"492":0.1291409134864807,"493":-1.1780190467834473,"494":-0.03873109444975853,"495":0.8434575200080872,"496":-1.2711777687072754,"497":-1.4293252229690552,"498":-1.3785160779953003,"499":0.44894134998321533,"500":0.8844476938247681,"501":-0.6602239608764648,"502":1.0684101581573486,"503":-0.5146051049232483,"504":-0.8224451541900635,"505":0.805953323841095,"506":-0.9245063066482544,"507":-1.017909049987793,"508":-0.5562644600868225,"509":1.2401543855667114,"510":1.4107091426849365,"511":-1.0880489349365234,"512":-0.26278939843177795,"513":1.0611826181411743,"514":-1.1038761138916016,"515":-1.4346723556518555,"516":1.4389864206314087,"517":0.0732140764594078,"518":-2.058920383453369,"519":0.2691967189311981,"520":0.9207143187522888,"521":0.4267476797103882,"522":-1.5368050336837769,"523":0.41026270389556885,"524":0.3013506531715393,"525":-0.0260879248380661,"526":0.13199861347675323,"527":-1.6583583354949951,"528":0.04341309145092964,"529":0.6778179407119751,"530":-1.2584565877914429,"531":-1.046585202217102,"532":-0.23829226195812225,"533":0.629956841468811,"534":1.0590920448303223,"535":-0.0025082402862608433,"536":-0.17317640781402588,"537":1.103421688079834,"538":0.344775915145874,"539":-0.027604689821600914,"540":0.4323257803916931,"541":-0.4321399927139282,"542":0.8385435342788696,"543":-0.4136967062950134,"544":-1.1551315784454346,"545":0.5858390927314758,"546":-0.25515100359916687,"547":-1.5722485780715942,"548":0.4687176048755646,"549":-0.5401731729507446,"550":0.586155891418457,"551":-0.1271911859512329,"552":-0.2620628774166107,"553":0.31284627318382263,"554":0.8906638622283936,"555":0.793769359588623,"556":1.2050079107284546,"557":-0.012571212835609913,"558":-0.9408271312713623,"559":1.8803446292877197,"560":-0.637046217918396,"561":-0.008830794133245945,"562":1.3050707578659058,"563":-1.4740076065063477,"564":-0.0668107345700264,"565":-0.10974425822496414,"566":0.07039429247379303,"567":-0.7633781433105469,"568":-1.5541563034057617,"569":1.727003812789917,"570":-0.05908770114183426,"571":-1.6471588611602783,"572":0.5486868023872375,"573":0.9383344054222107,"574":-1.3390566110610962,"575":-0.42624565958976746,"576":0.9712035059928894,"577":-0.0840105414390564,"578":-1.0036289691925049,"579":0.2901541590690613}},"outputHidden":{"rows":20,"columns":20,"weights":{"0":1.1721585988998413,"1":1.6316155195236206,"2":0.9361290335655212,"3":1.0031238794326782,"4":-0.9914928674697876,"5":-0.43750524520874023,"6":-1.6255091428756714,"7":-1.3277242183685303,"8":0.1595826894044876,"9":-0.8754810094833374,"10":-0.20293889939785004,"11":-0.08630523830652237,"12":-0.3744254410266876,"13":1.460748553276062,"14":1.5777837038040161,"15":-0.45236992835998535,"16":1.1171904802322388,"17":-1.4939944744110107,"18":1.5794755220413208,"19":-0.4182865619659424,"20":1.5293630361557007,"21":1.0964266061782837,"22":0.15169791877269745,"23":0.43827149271965027,"24":0.31482869386672974,"25":0.1488429754972458,"26":-0.5337223410606384,"27":-0.703324019908905,"28":0.48505619168281555,"29":-0.6460440158843994,"30":-0.7863643169403076,"31":-0.03861413151025772,"32":-0.030049245804548264,"33":0.6715989708900452,"34":-0.44851577281951904,"35":-0.36413970589637756,"36":0.7621893286705017,"37":-0.5629168152809143,"38":0.5581376552581787,"39":-0.13084112107753754,"40":-0.09862768650054932,"41":-0.38449081778526306,"42":1.0625914335250854,"43":0.5742548704147339,"44":0.7763977646827698,"45":0.7385873794555664,"46":0.005659404676407576,"47":-0.269343763589859,"48":-0.8968971967697144,"49":0.3680645525455475,"50":0.12280221283435822,"51":0.7825338840484619,"52":1.1371815204620361,"53":-0.18283936381340027,"54":0.5786056518554688,"55":0.2943825125694275,"56":0.028369497507810593,"57":0.26924368739128113,"58":-0.8025246262550354,"59":-1.1207554340362549,"60":-0.8203496932983398,"61":-0.9635427594184875,"62":0.8181448578834534,"63":0.4077671468257904,"64":1.2915705442428589,"65":1.7221356630325317,"66":-0.3164958953857422,"67":0.2636670768260956,"68":-0.8409139513969421,"69":1.0257326364517212,"70":-0.3332962989807129,"71":2.960313320159912,"72":0.3468177318572998,"73":0.19170896708965302,"74":-1.1432690620422363,"75":0.520841121673584,"76":-0.3796573281288147,"77":-0.5220049023628235,"78":-1.6110011339187622,"79":-1.9087313413619995,"80":0.4789868891239166,"81":-1.657118320465088,"82":0.6530834436416626,"83":0.34376728534698486,"84":1.6471010446548462,"85":1.4212102890014648,"86":-0.418464720249176,"87":1.972665786743164,"88":-1.8417434692382812,"89":0.5880573987960815,"90":-0.09508513659238815,"91":-0.7493985295295715,"92":-1.6813766956329346,"93":1.0518921613693237,"94":-0.8072559833526611,"95":-1.0518555641174316,"96":-0.1322299689054489,"97":-0.3970249891281128,"98":-1.280855655670166,"99":-0.6114917993545532,"100":0.3592029809951782,"101":0.10776631534099579,"102":0.29482409358024597,"103":0.35512447357177734,"104":0.20533382892608643,"105":0.19148285686969757,"106":-0.43645527958869934,"107":-0.6958544850349426,"108":-0.22735489904880524,"109":-0.1921447068452835,"110":0.038535505533218384,"111":0.814750611782074,"112":0.00949803926050663,"113":0.24379172921180725,"114":0.4839894473552704,"115":0.35972192883491516,"116":0.6988822221755981,"117":-0.18054255843162537,"118":0.2107875496149063,"119":-0.541911780834198,"120":0.44110992550849915,"121":0.10266535729169846,"122":0.2720608711242676,"123":0.15118667483329773,"124":0.18939250707626343,"125":0.13585905730724335,"126":-0.4127740263938904,"127":0.062324024736881256,"128":0.8370213508605957,"129":0.03258604556322098,"130":-0.838485062122345,"131":0.6349961757659912,"132":-0.18573905527591705,"133":0.41445714235305786,"134":-0.5604344010353088,"135":-0.5903782844543457,"136":-0.16610869765281677,"137":-0.37188273668289185,"138":0.48162516951560974,"139":-0.15233132243156433,"140":2.2912514209747314,"141":2.409863233566284,"142":-0.7663792967796326,"143":-0.5402495265007019,"144":0.09298774600028992,"145":0.30967092514038086,"146":-1.1168498992919922,"147":-0.5752713680267334,"148":-1.500568151473999,"149":-0.12460489571094513,"150":-1.2825791835784912,"151":-0.41107869148254395,"152":-1.044755220413208,"153":1.5386021137237549,"154":-1.0171359777450562,"155":-0.05715395510196686,"156":0.7193336486816406,"157":-1.8332945108413696,"158":-0.20594418048858643,"159":1.6758530139923096,"160":2.5288028717041016,"161":-0.060779597610235214,"162":-1.1667239665985107,"163":-0.6636912822723389,"164":-0.7942763566970825,"165":-0.46187645196914673,"166":-2.6383745670318604,"167":-0.038523148745298386,"168":0.8465949296951294,"169":-0.5572744011878967,"170":-1.0199790000915527,"171":0.9566576480865479,"172":-2.3501977920532227,"173":2.4310622215270996,"174":-1.0195900201797485,"175":0.1950976401567459,"176":0.3751350939273834,"177":-2.3478283882141113,"178":2.220210075378418,"179":1.8583824634552002,"180":1.3712879419326782,"181":0.40258145332336426,"182":-1.9460880756378174,"183":-1.3063807487487793,"184":0.784355103969574,"185":-0.003246711101382971,"186":-1.9998407363891602,"187":-0.5071205496788025,"188":-0.5834317207336426,"189":-0.6466364860534668,"190":-1.6346595287322998,"191":-1.5630303621292114,"192":-1.4287724494934082,"193":1.4359866380691528,"194":-0.30456632375717163,"195":-0.8721774220466614,"196":0.456278920173645,"197":-0.562273383140564,"198":1.1421623229980469,"199":2.7691705226898193,"200":-0.9094849824905396,"201":1.6704944372177124,"202":-1.535391926765442,"203":-2.8070898056030273,"204":0.13876231014728546,"205":-2.1979386806488037,"206":0.6274744272232056,"207":-1.1572502851486206,"208":0.3814244866371155,"209":0.45291465520858765,"210":2.184622287750244,"211":-2.9973995685577393,"212":1.8841809034347534,"213":-0.5863888263702393,"214":0.8640044927597046,"215":0.25203096866607666,"216":0.22039644420146942,"217":0.7532765865325928,"218":-0.17849677801132202,"219":1.695752501487732,"220":-1.0850090980529785,"221":-0.01870080828666687,"222":-1.2902840375900269,"223":0.14998164772987366,"224":0.46835073828697205,"225":-1.24277925491333,"226":1.358073115348816,"227":-0.24885177612304688,"228":-0.006589516997337341,"229":0.7558541893959045,"230":1.9355435371398926,"231":-2.476332664489746,"232":1.6863889694213867,"233":-1.5337568521499634,"234":2.526577949523926,"235":0.48088860511779785,"236":-0.15792356431484222,"237":1.8406471014022827,"238":-2.3828704357147217,"239":0.27178630232810974,"240":-0.23984773457050323,"241":-1.3063552379608154,"242":0.08772877603769302,"243":0.8879771828651428,"244":1.084836721420288,"245":0.6498826742172241,"246":0.40565603971481323,"247":0.9854471683502197,"248":-0.7004562020301819,"249":0.993222713470459,"250":0.557079553604126,"251":0.23977288603782654,"252":0.46317923069000244,"253":-0.15505339205265045,"254":-1.0691955089569092,"255":0.05693335831165314,"256":-0.6749164462089539,"257":0.16027210652828217,"258":-0.3650510609149933,"259":-1.0507210493087769,"260":-0.007988911122083664,"261":-0.4311581552028656,"262":0.5930823087692261,"263":0.7335746884346008,"264":0.21997180581092834,"265":0.4750283360481262,"266":-0.04848027601838112,"267":0.2543274760246277,"268":-0.21386779844760895,"269":0.7410035133361816,"270":-0.3484770655632019,"271":0.7324919104576111,"272":0.17590247094631195,"273":-0.3114943206310272,"274":0.20591388642787933,"275":0.46536192297935486,"276":-0.5986688137054443,"277":-0.06413505226373672,"278":0.08510168641805649,"279":-0.5947907567024231,"280":-0.34059566259384155,"281":-0.5406191945075989,"282":1.3385417461395264,"283":1.643456220626831,"284":-0.0018914034590125084,"285":-0.4412310719490051,"286":0.2871152460575104,"287":0.48775461316108704,"288":-0.9084222912788391,"289":0.8060523271560669,"290":2.030912160873413,"291":-0.8546321392059326,"292":1.3518202304840088,"293":-0.5563229322433472,"294":0.854901909828186,"295":0.542526364326477,"296":-0.02438848838210106,"297":0.41171708703041077,"298":0.00796903669834137,"299":-1.9245771169662476,"300":0.18131336569786072,"301":0.2684263586997986,"302":0.5940477848052979,"303":0.028772961348295212,"304":1.322603464126587,"305":-0.97581547498703,"306":0.5594848990440369,"307":0.0921207144856453,"308":0.29804742336273193,"309":-0.49306952953338623,"310":0.04555480182170868,"311":-0.23047223687171936,"312":0.000481675990158692,"313":-0.47074973583221436,"314":-0.9898856282234192,"315":-0.5540024042129517,"316":0.2405305802822113,"317":0.42912089824676514,"318":0.14935308694839478,"319":-0.45559120178222656,"320":0.6670011281967163,"321":-0.5068866014480591,"322":-2.647416114807129,"323":-1.2084921598434448,"324":1.4239052534103394,"325":0.5045547485351562,"326":-1.2098499536514282,"327":1.0588487386703491,"328":-0.11600850522518158,"329":-0.20873410999774933,"330":-1.2235064506530762,"331":-2.4164435863494873,"332":-1.7078497409820557,"333":0.8653820753097534,"334":-1.0195014476776123,"335":0.2539934515953064,"336":0.030724581331014633,"337":0.14932116866111755,"338":-0.3476138710975647,"339":2.564700126647949,"340":1.0584663152694702,"341":-0.9823606014251709,"342":-0.685864269733429,"343":-0.37713587284088135,"344":0.8118718266487122,"345":-0.09781958907842636,"346":-0.6226716637611389,"347":0.43315359950065613,"348":0.5291700959205627,"349":0.34591907262802124,"350":-0.7900437116622925,"351":-0.6915844082832336,"352":-0.4644976258277893,"353":0.881296694278717,"354":0.4862568974494934,"355":0.6435807347297668,"356":-0.1979127824306488,"357":0.2950745224952698,"358":0.07025735080242157,"359":0.9465083479881287,"360":1.4827724695205688,"361":-0.4233437776565552,"362":0.042601633816957474,"363":-1.6785353422164917,"364":0.5570363402366638,"365":-1.5507839918136597,"366":-1.9966288805007935,"367":-0.4536565840244293,"368":0.6018511652946472,"369":-0.35025128722190857,"370":-1.895639419555664,"371":0.2864326536655426,"372":-1.5448055267333984,"373":1.8007131814956665,"374":-0.07831299304962158,"375":1.5951353311538696,"376":0.32567697763442993,"377":-0.7581925988197327,"378":-0.5209453701972961,"379":2.3930506706237793,"380":-0.07578834891319275,"381":-0.831700325012207,"382":0.3063344359397888,"383":0.43330118060112,"384":1.044108510017395,"385":0.2345494031906128,"386":0.38754186034202576,"387":0.6343897581100464,"388":-0.7265534400939941,"389":0.9217473268508911,"390":0.5911656618118286,"391":1.4619635343551636,"392":0.9307622909545898,"393":-0.338021457195282,"394":0.35468950867652893,"395":0.47728145122528076,"396":0.6644150018692017,"397":0.2112714648246765,"398":-0.055278386920690536,"399":-0.7281866669654846}},"outputBias":{"rows":20,"columns":1,"weights":{"0":-0.6380804777145386,"1":-0.685962975025177,"2":-0.12606219947338104,"3":0.7164601683616638,"4":-0.6885405778884888,"5":0.5886947512626648,"6":-0.6540538668632507,"7":-0.7831125855445862,"8":-0.3596748113632202,"9":-0.6784612536430359,"10":-1.0212475061416626,"11":-1.2579336166381836,"12":-0.664896547794342,"13":-0.5334480404853821,"14":0.9061294198036194,"15":-0.42991626262664795,"16":-0.7000873684883118,"17":-0.5927598476409912,"18":-0.5547617077827454,"19":1.2954816818237305}},"cellActivationMatrix":{"rows":20,"columns":29,"weights":{"0":-0.6058700680732727,"1":0.6377887725830078,"2":0.8171935677528381,"3":-0.04052681848406792,"4":-0.10502636432647705,"5":0.017255863174796104,"6":0.7590329051017761,"7":0.2645583748817444,"8":0.030309712514281273,"9":1.2489794492721558,"10":-0.8468930125236511,"11":-0.18729430437088013,"12":0.004705857951194048,